digraph Tree {
node [shape=box, style="filled, rounded", color="black", fontname=helvetica] ;
edge [fontname=helvetica] ;
0 [label=<hour &le; 20.5<br/>gini = 0.496<br/>samples = 895<br/>value = [486, 409]<br/>class = 0>, fillcolor="#fbebe0"] ;
1 [label=<device_make &le; 91.0<br/>gini = 0.495<br/>samples = 855<br/>value = [470, 385]<br/>class = 0>, fillcolor="#fae8db"] ;
0 -> 1 [labeldistance=2.5, labelangle=45, headlabel="True"] ;
2 [label=<device_make &le; 68.5<br/>gini = 0.497<br/>samples = 814<br/>value = [441, 373]<br/>class = 0>, fillcolor="#fbece0"] ;
1 -> 2 ;
3 [label=<hour &le; 12.5<br/>gini = 0.494<br/>samples = 738<br/>value = [410, 328]<br/>class = 0>, fillcolor="#fae6d7"] ;
2 -> 3 ;
4 [label=<device_make &le; 1.5<br/>gini = 0.485<br/>samples = 374<br/>value = [219, 155]<br/>class = 0>, fillcolor="#f7dac5"] ;
3 -> 4 ;
5 [label=<gini = 0.0<br/>samples = 2<br/>value = [0, 2]<br/>class = 1>, fillcolor="#399de5"] ;
4 -> 5 ;
6 [label=<device_make &le; 4.5<br/>gini = 0.484<br/>samples = 372<br/>value = [219, 153]<br/>class = 0>, fillcolor="#f7d9c3"] ;
4 -> 6 ;
7 [label=<gini = 0.0<br/>samples = 4<br/>value = [4, 0]<br/>class = 0>, fillcolor="#e58139"] ;
6 -> 7 ;
8 [label=<device_make &le; 5.5<br/>gini = 0.486<br/>samples = 368<br/>value = [215, 153]<br/>class = 0>, fillcolor="#f8dbc6"] ;
6 -> 8 ;
9 [label=<gini = 0.0<br/>samples = 2<br/>value = [0, 2]<br/>class = 1>, fillcolor="#399de5"] ;
8 -> 9 ;
10 [label=<device_make &le; 26.5<br/>gini = 0.485<br/>samples = 366<br/>value = [215, 151]<br/>class = 0>, fillcolor="#f7d9c4"] ;
8 -> 10 ;
11 [label=<browser &le; 3.0<br/>gini = 0.475<br/>samples = 273<br/>value = [167, 106]<br/>class = 0>, fillcolor="#f6d1b7"] ;
10 -> 11 ;
12 [label=<device_make &le; 21.5<br/>gini = 0.478<br/>samples = 265<br/>value = [160, 105]<br/>class = 0>, fillcolor="#f6d4bb"] ;
11 -> 12 ;
13 [label=<device_make &le; 14.0<br/>gini = 0.482<br/>samples = 255<br/>value = [152, 103]<br/>class = 0>, fillcolor="#f7d6bf"] ;
12 -> 13 ;
14 [label=<hour &le; 10.5<br/>gini = 0.477<br/>samples = 244<br/>value = [148, 96]<br/>class = 0>, fillcolor="#f6d3b9"] ;
13 -> 14 ;
15 [label=<hour &le; 3.5<br/>gini = 0.486<br/>samples = 211<br/>value = [123, 88]<br/>class = 0>, fillcolor="#f8dbc7"] ;
14 -> 15 ;
16 [label=<date &le; 2.5<br/>gini = 0.441<br/>samples = 58<br/>value = [39, 19]<br/>class = 0>, fillcolor="#f2be99"] ;
15 -> 16 ;
17 [label=<hour &le; 1.5<br/>gini = 0.49<br/>samples = 28<br/>value = [16, 12]<br/>class = 0>, fillcolor="#f8e0ce"] ;
16 -> 17 ;
18 [label=<hour &le; 0.5<br/>gini = 0.497<br/>samples = 13<br/>value = [6, 7]<br/>class = 1>, fillcolor="#e3f1fb"] ;
17 -> 18 ;
19 [label=<experiment &le; 0.5<br/>gini = 0.494<br/>samples = 9<br/>value = [5, 4]<br/>class = 0>, fillcolor="#fae6d7"] ;
18 -> 19 ;
20 [label=<gini = 0.0<br/>samples = 1<br/>value = [0, 1]<br/>class = 1>, fillcolor="#399de5"] ;
19 -> 20 ;
21 [label=<browser &le; 1.5<br/>gini = 0.469<br/>samples = 8<br/>value = [5, 3]<br/>class = 0>, fillcolor="#f5cdb0"] ;
19 -> 21 ;
22 [label=<date &le; 1.0<br/>gini = 0.444<br/>samples = 6<br/>value = [4, 2]<br/>class = 0>, fillcolor="#f2c09c"] ;
21 -> 22 ;
23 [label=<gini = 0.375<br/>samples = 4<br/>value = [3, 1]<br/>class = 0>, fillcolor="#eeab7b"] ;
22 -> 23 ;
24 [label=<gini = 0.5<br/>samples = 2<br/>value = [1, 1]<br/>class = 0>, fillcolor="#ffffff"] ;
22 -> 24 ;
25 [label=<date &le; 1.0<br/>gini = 0.5<br/>samples = 2<br/>value = [1, 1]<br/>class = 0>, fillcolor="#ffffff"] ;
21 -> 25 ;
26 [label=<gini = 0.0<br/>samples = 1<br/>value = [0, 1]<br/>class = 1>, fillcolor="#399de5"] ;
25 -> 26 ;
27 [label=<gini = 0.0<br/>samples = 1<br/>value = [1, 0]<br/>class = 0>, fillcolor="#e58139"] ;
25 -> 27 ;
28 [label=<date &le; 0.5<br/>gini = 0.375<br/>samples = 4<br/>value = [1, 3]<br/>class = 1>, fillcolor="#7bbeee"] ;
18 -> 28 ;
29 [label=<gini = 0.5<br/>samples = 2<br/>value = [1, 1]<br/>class = 0>, fillcolor="#ffffff"] ;
28 -> 29 ;
30 [label=<gini = 0.0<br/>samples = 2<br/>value = [0, 2]<br/>class = 1>, fillcolor="#399de5"] ;
28 -> 30 ;
31 [label=<date &le; 1.5<br/>gini = 0.444<br/>samples = 15<br/>value = [10, 5]<br/>class = 0>, fillcolor="#f2c09c"] ;
17 -> 31 ;
32 [label=<date &le; 0.5<br/>gini = 0.32<br/>samples = 10<br/>value = [8, 2]<br/>class = 0>, fillcolor="#eca06a"] ;
31 -> 32 ;
33 [label=<hour &le; 2.5<br/>gini = 0.444<br/>samples = 3<br/>value = [1, 2]<br/>class = 1>, fillcolor="#9ccef2"] ;
32 -> 33 ;
34 [label=<gini = 0.0<br/>samples = 2<br/>value = [0, 2]<br/>class = 1>, fillcolor="#399de5"] ;
33 -> 34 ;
35 [label=<gini = 0.0<br/>samples = 1<br/>value = [1, 0]<br/>class = 0>, fillcolor="#e58139"] ;
33 -> 35 ;
36 [label=<gini = 0.0<br/>samples = 7<br/>value = [7, 0]<br/>class = 0>, fillcolor="#e58139"] ;
32 -> 36 ;
37 [label=<experiment &le; 0.5<br/>gini = 0.48<br/>samples = 5<br/>value = [2, 3]<br/>class = 1>, fillcolor="#bddef6"] ;
31 -> 37 ;
38 [label=<hour &le; 2.5<br/>gini = 0.444<br/>samples = 3<br/>value = [2, 1]<br/>class = 0>, fillcolor="#f2c09c"] ;
37 -> 38 ;
39 [label=<gini = 0.0<br/>samples = 1<br/>value = [1, 0]<br/>class = 0>, fillcolor="#e58139"] ;
38 -> 39 ;
40 [label=<gini = 0.5<br/>samples = 2<br/>value = [1, 1]<br/>class = 0>, fillcolor="#ffffff"] ;
38 -> 40 ;
41 [label=<gini = 0.0<br/>samples = 2<br/>value = [0, 2]<br/>class = 1>, fillcolor="#399de5"] ;
37 -> 41 ;
42 [label=<browser &le; 1.5<br/>gini = 0.358<br/>samples = 30<br/>value = [23, 7]<br/>class = 0>, fillcolor="#eda775"] ;
16 -> 42 ;
43 [label=<experiment &le; 0.5<br/>gini = 0.337<br/>samples = 28<br/>value = [22, 6]<br/>class = 0>, fillcolor="#eca36f"] ;
42 -> 43 ;
44 [label=<date &le; 4.5<br/>gini = 0.219<br/>samples = 8<br/>value = [7, 1]<br/>class = 0>, fillcolor="#e99355"] ;
43 -> 44 ;
45 [label=<hour &le; 2.0<br/>gini = 0.444<br/>samples = 3<br/>value = [2, 1]<br/>class = 0>, fillcolor="#f2c09c"] ;
44 -> 45 ;
46 [label=<gini = 0.0<br/>samples = 1<br/>value = [1, 0]<br/>class = 0>, fillcolor="#e58139"] ;
45 -> 46 ;
47 [label=<gini = 0.5<br/>samples = 2<br/>value = [1, 1]<br/>class = 0>, fillcolor="#ffffff"] ;
45 -> 47 ;
48 [label=<gini = 0.0<br/>samples = 5<br/>value = [5, 0]<br/>class = 0>, fillcolor="#e58139"] ;
44 -> 48 ;
49 [label=<date &le; 5.5<br/>gini = 0.375<br/>samples = 20<br/>value = [15, 5]<br/>class = 0>, fillcolor="#eeab7b"] ;
43 -> 49 ;
50 [label=<hour &le; 2.5<br/>gini = 0.219<br/>samples = 8<br/>value = [7, 1]<br/>class = 0>, fillcolor="#e99355"] ;
49 -> 50 ;
51 [label=<gini = 0.0<br/>samples = 4<br/>value = [4, 0]<br/>class = 0>, fillcolor="#e58139"] ;
50 -> 51 ;
52 [label=<gini = 0.375<br/>samples = 4<br/>value = [3, 1]<br/>class = 0>, fillcolor="#eeab7b"] ;
50 -> 52 ;
53 [label=<hour &le; 2.5<br/>gini = 0.444<br/>samples = 12<br/>value = [8, 4]<br/>class = 0>, fillcolor="#f2c09c"] ;
49 -> 53 ;
54 [label=<hour &le; 1.5<br/>gini = 0.469<br/>samples = 8<br/>value = [5, 3]<br/>class = 0>, fillcolor="#f5cdb0"] ;
53 -> 54 ;
55 [label=<date &le; 6.5<br/>gini = 0.444<br/>samples = 6<br/>value = [4, 2]<br/>class = 0>, fillcolor="#f2c09c"] ;
54 -> 55 ;
56 [label=<hour &le; 0.5<br/>gini = 0.5<br/>samples = 2<br/>value = [1, 1]<br/>class = 0>, fillcolor="#ffffff"] ;
55 -> 56 ;
57 [label=<gini = 0.0<br/>samples = 1<br/>value = [1, 0]<br/>class = 0>, fillcolor="#e58139"] ;
56 -> 57 ;
58 [label=<gini = 0.0<br/>samples = 1<br/>value = [0, 1]<br/>class = 1>, fillcolor="#399de5"] ;
56 -> 58 ;
59 [label=<hour &le; 0.5<br/>gini = 0.375<br/>samples = 4<br/>value = [3, 1]<br/>class = 0>, fillcolor="#eeab7b"] ;
55 -> 59 ;
60 [label=<gini = 0.5<br/>samples = 2<br/>value = [1, 1]<br/>class = 0>, fillcolor="#ffffff"] ;
59 -> 60 ;
61 [label=<gini = 0.0<br/>samples = 2<br/>value = [2, 0]<br/>class = 0>, fillcolor="#e58139"] ;
59 -> 61 ;
62 [label=<gini = 0.5<br/>samples = 2<br/>value = [1, 1]<br/>class = 0>, fillcolor="#ffffff"] ;
54 -> 62 ;
63 [label=<date &le; 6.5<br/>gini = 0.375<br/>samples = 4<br/>value = [3, 1]<br/>class = 0>, fillcolor="#eeab7b"] ;
53 -> 63 ;
64 [label=<gini = 0.0<br/>samples = 1<br/>value = [1, 0]<br/>class = 0>, fillcolor="#e58139"] ;
63 -> 64 ;
65 [label=<gini = 0.444<br/>samples = 3<br/>value = [2, 1]<br/>class = 0>, fillcolor="#f2c09c"] ;
63 -> 65 ;
66 [label=<hour &le; 1.5<br/>gini = 0.5<br/>samples = 2<br/>value = [1, 1]<br/>class = 0>, fillcolor="#ffffff"] ;
42 -> 66 ;
67 [label=<gini = 0.0<br/>samples = 1<br/>value = [0, 1]<br/>class = 1>, fillcolor="#399de5"] ;
66 -> 67 ;
68 [label=<gini = 0.0<br/>samples = 1<br/>value = [1, 0]<br/>class = 0>, fillcolor="#e58139"] ;
66 -> 68 ;
69 [label=<date &le; 2.5<br/>gini = 0.495<br/>samples = 153<br/>value = [84, 69]<br/>class = 0>, fillcolor="#fae8dc"] ;
15 -> 69 ;
70 [label=<hour &le; 4.5<br/>gini = 0.479<br/>samples = 63<br/>value = [38, 25]<br/>class = 0>, fillcolor="#f6d4bb"] ;
69 -> 70 ;
71 [label=<experiment &le; 0.5<br/>gini = 0.219<br/>samples = 8<br/>value = [7, 1]<br/>class = 0>, fillcolor="#e99355"] ;
70 -> 71 ;
72 [label=<date &le; 1.5<br/>gini = 0.444<br/>samples = 3<br/>value = [2, 1]<br/>class = 0>, fillcolor="#f2c09c"] ;
71 -> 72 ;
73 [label=<gini = 0.5<br/>samples = 2<br/>value = [1, 1]<br/>class = 0>, fillcolor="#ffffff"] ;
72 -> 73 ;
74 [label=<gini = 0.0<br/>samples = 1<br/>value = [1, 0]<br/>class = 0>, fillcolor="#e58139"] ;
72 -> 74 ;
75 [label=<gini = 0.0<br/>samples = 5<br/>value = [5, 0]<br/>class = 0>, fillcolor="#e58139"] ;
71 -> 75 ;
76 [label=<date &le; 1.5<br/>gini = 0.492<br/>samples = 55<br/>value = [31, 24]<br/>class = 0>, fillcolor="#f9e3d2"] ;
70 -> 76 ;
77 [label=<browser &le; 1.5<br/>gini = 0.5<br/>samples = 40<br/>value = [20, 20]<br/>class = 0>, fillcolor="#ffffff"] ;
76 -> 77 ;
78 [label=<date &le; 0.5<br/>gini = 0.496<br/>samples = 33<br/>value = [18, 15]<br/>class = 0>, fillcolor="#fbeade"] ;
77 -> 78 ;
79 [label=<hour &le; 5.5<br/>gini = 0.498<br/>samples = 15<br/>value = [7, 8]<br/>class = 1>, fillcolor="#e6f3fc"] ;
78 -> 79 ;
80 [label=<gini = 0.0<br/>samples = 1<br/>value = [1, 0]<br/>class = 0>, fillcolor="#e58139"] ;
79 -> 80 ;
81 [label=<hour &le; 6.5<br/>gini = 0.49<br/>samples = 14<br/>value = [6, 8]<br/>class = 1>, fillcolor="#cee6f8"] ;
79 -> 81 ;
82 [label=<gini = 0.0<br/>samples = 1<br/>value = [0, 1]<br/>class = 1>, fillcolor="#399de5"] ;
81 -> 82 ;
83 [label=<hour &le; 7.5<br/>gini = 0.497<br/>samples = 13<br/>value = [6, 7]<br/>class = 1>, fillcolor="#e3f1fb"] ;
81 -> 83 ;
84 [label=<gini = 0.444<br/>samples = 3<br/>value = [2, 1]<br/>class = 0>, fillcolor="#f2c09c"] ;
83 -> 84 ;
85 [label=<hour &le; 9.5<br/>gini = 0.48<br/>samples = 10<br/>value = [4, 6]<br/>class = 1>, fillcolor="#bddef6"] ;
83 -> 85 ;
86 [label=<hour &le; 8.5<br/>gini = 0.49<br/>samples = 7<br/>value = [3, 4]<br/>class = 1>, fillcolor="#cee6f8"] ;
85 -> 86 ;
87 [label=<gini = 0.48<br/>samples = 5<br/>value = [2, 3]<br/>class = 1>, fillcolor="#bddef6"] ;
86 -> 87 ;
88 [label=<gini = 0.5<br/>samples = 2<br/>value = [1, 1]<br/>class = 0>, fillcolor="#ffffff"] ;
86 -> 88 ;
89 [label=<gini = 0.444<br/>samples = 3<br/>value = [1, 2]<br/>class = 1>, fillcolor="#9ccef2"] ;
85 -> 89 ;
90 [label=<hour &le; 5.5<br/>gini = 0.475<br/>samples = 18<br/>value = [11, 7]<br/>class = 0>, fillcolor="#f6d1b7"] ;
78 -> 90 ;
91 [label=<gini = 0.0<br/>samples = 1<br/>value = [0, 1]<br/>class = 1>, fillcolor="#399de5"] ;
90 -> 91 ;
92 [label=<hour &le; 9.5<br/>gini = 0.457<br/>samples = 17<br/>value = [11, 6]<br/>class = 0>, fillcolor="#f3c6a5"] ;
90 -> 92 ;
93 [label=<hour &le; 8.5<br/>gini = 0.473<br/>samples = 13<br/>value = [8, 5]<br/>class = 0>, fillcolor="#f5d0b5"] ;
92 -> 93 ;
94 [label=<experiment &le; 0.5<br/>gini = 0.444<br/>samples = 9<br/>value = [6, 3]<br/>class = 0>, fillcolor="#f2c09c"] ;
93 -> 94 ;
95 [label=<hour &le; 7.0<br/>gini = 0.5<br/>samples = 2<br/>value = [1, 1]<br/>class = 0>, fillcolor="#ffffff"] ;
94 -> 95 ;
96 [label=<gini = 0.0<br/>samples = 1<br/>value = [1, 0]<br/>class = 0>, fillcolor="#e58139"] ;
95 -> 96 ;
97 [label=<gini = 0.0<br/>samples = 1<br/>value = [0, 1]<br/>class = 1>, fillcolor="#399de5"] ;
95 -> 97 ;
98 [label=<hour &le; 7.5<br/>gini = 0.408<br/>samples = 7<br/>value = [5, 2]<br/>class = 0>, fillcolor="#efb388"] ;
94 -> 98 ;
99 [label=<hour &le; 6.5<br/>gini = 0.48<br/>samples = 5<br/>value = [3, 2]<br/>class = 0>, fillcolor="#f6d5bd"] ;
98 -> 99 ;
100 [label=<gini = 0.5<br/>samples = 2<br/>value = [1, 1]<br/>class = 0>, fillcolor="#ffffff"] ;
99 -> 100 ;
101 [label=<gini = 0.444<br/>samples = 3<br/>value = [2, 1]<br/>class = 0>, fillcolor="#f2c09c"] ;
99 -> 101 ;
102 [label=<gini = 0.0<br/>samples = 2<br/>value = [2, 0]<br/>class = 0>, fillcolor="#e58139"] ;
98 -> 102 ;
103 [label=<experiment &le; 0.5<br/>gini = 0.5<br/>samples = 4<br/>value = [2, 2]<br/>class = 0>, fillcolor="#ffffff"] ;
93 -> 103 ;
104 [label=<gini = 0.0<br/>samples = 1<br/>value = [1, 0]<br/>class = 0>, fillcolor="#e58139"] ;
103 -> 104 ;
105 [label=<gini = 0.444<br/>samples = 3<br/>value = [1, 2]<br/>class = 1>, fillcolor="#9ccef2"] ;
103 -> 105 ;
106 [label=<gini = 0.375<br/>samples = 4<br/>value = [3, 1]<br/>class = 0>, fillcolor="#eeab7b"] ;
92 -> 106 ;
107 [label=<hour &le; 8.0<br/>gini = 0.408<br/>samples = 7<br/>value = [2, 5]<br/>class = 1>, fillcolor="#88c4ef"] ;
77 -> 107 ;
108 [label=<gini = 0.0<br/>samples = 4<br/>value = [0, 4]<br/>class = 1>, fillcolor="#399de5"] ;
107 -> 108 ;
109 [label=<device_make &le; 11.0<br/>gini = 0.444<br/>samples = 3<br/>value = [2, 1]<br/>class = 0>, fillcolor="#f2c09c"] ;
107 -> 109 ;
110 [label=<gini = 0.0<br/>samples = 1<br/>value = [1, 0]<br/>class = 0>, fillcolor="#e58139"] ;
109 -> 110 ;
111 [label=<gini = 0.5<br/>samples = 2<br/>value = [1, 1]<br/>class = 0>, fillcolor="#ffffff"] ;
109 -> 111 ;
112 [label=<experiment &le; 0.5<br/>gini = 0.391<br/>samples = 15<br/>value = [11, 4]<br/>class = 0>, fillcolor="#eeaf81"] ;
76 -> 112 ;
113 [label=<hour &le; 6.0<br/>gini = 0.5<br/>samples = 4<br/>value = [2, 2]<br/>class = 0>, fillcolor="#ffffff"] ;
112 -> 113 ;
114 [label=<gini = 0.0<br/>samples = 1<br/>value = [1, 0]<br/>class = 0>, fillcolor="#e58139"] ;
113 -> 114 ;
115 [label=<hour &le; 8.5<br/>gini = 0.444<br/>samples = 3<br/>value = [1, 2]<br/>class = 1>, fillcolor="#9ccef2"] ;
113 -> 115 ;
116 [label=<gini = 0.0<br/>samples = 1<br/>value = [0, 1]<br/>class = 1>, fillcolor="#399de5"] ;
115 -> 116 ;
117 [label=<gini = 0.5<br/>samples = 2<br/>value = [1, 1]<br/>class = 0>, fillcolor="#ffffff"] ;
115 -> 117 ;
118 [label=<hour &le; 6.5<br/>gini = 0.298<br/>samples = 11<br/>value = [9, 2]<br/>class = 0>, fillcolor="#eb9d65"] ;
112 -> 118 ;
119 [label=<hour &le; 5.5<br/>gini = 0.444<br/>samples = 3<br/>value = [1, 2]<br/>class = 1>, fillcolor="#9ccef2"] ;
118 -> 119 ;
120 [label=<gini = 0.0<br/>samples = 1<br/>value = [0, 1]<br/>class = 1>, fillcolor="#399de5"] ;
119 -> 120 ;
121 [label=<gini = 0.5<br/>samples = 2<br/>value = [1, 1]<br/>class = 0>, fillcolor="#ffffff"] ;
119 -> 121 ;
122 [label=<gini = 0.0<br/>samples = 8<br/>value = [8, 0]<br/>class = 0>, fillcolor="#e58139"] ;
118 -> 122 ;
123 [label=<experiment &le; 0.5<br/>gini = 0.5<br/>samples = 90<br/>value = [46, 44]<br/>class = 0>, fillcolor="#fefaf6"] ;
69 -> 123 ;
124 [label=<browser &le; 1.5<br/>gini = 0.464<br/>samples = 30<br/>value = [19, 11]<br/>class = 0>, fillcolor="#f4caac"] ;
123 -> 124 ;
125 [label=<date &le; 4.5<br/>gini = 0.471<br/>samples = 29<br/>value = [18, 11]<br/>class = 0>, fillcolor="#f5ceb2"] ;
124 -> 125 ;
126 [label=<hour &le; 5.5<br/>gini = 0.492<br/>samples = 16<br/>value = [9, 7]<br/>class = 0>, fillcolor="#f9e3d3"] ;
125 -> 126 ;
127 [label=<date &le; 3.5<br/>gini = 0.32<br/>samples = 5<br/>value = [4, 1]<br/>class = 0>, fillcolor="#eca06a"] ;
126 -> 127 ;
128 [label=<hour &le; 4.5<br/>gini = 0.444<br/>samples = 3<br/>value = [2, 1]<br/>class = 0>, fillcolor="#f2c09c"] ;
127 -> 128 ;
129 [label=<gini = 0.5<br/>samples = 2<br/>value = [1, 1]<br/>class = 0>, fillcolor="#ffffff"] ;
128 -> 129 ;
130 [label=<gini = 0.0<br/>samples = 1<br/>value = [1, 0]<br/>class = 0>, fillcolor="#e58139"] ;
128 -> 130 ;
131 [label=<gini = 0.0<br/>samples = 2<br/>value = [2, 0]<br/>class = 0>, fillcolor="#e58139"] ;
127 -> 131 ;
132 [label=<hour &le; 8.5<br/>gini = 0.496<br/>samples = 11<br/>value = [5, 6]<br/>class = 1>, fillcolor="#deeffb"] ;
126 -> 132 ;
133 [label=<hour &le; 6.5<br/>gini = 0.375<br/>samples = 4<br/>value = [1, 3]<br/>class = 1>, fillcolor="#7bbeee"] ;
132 -> 133 ;
134 [label=<gini = 0.5<br/>samples = 2<br/>value = [1, 1]<br/>class = 0>, fillcolor="#ffffff"] ;
133 -> 134 ;
135 [label=<gini = 0.0<br/>samples = 2<br/>value = [0, 2]<br/>class = 1>, fillcolor="#399de5"] ;
133 -> 135 ;
136 [label=<hour &le; 9.5<br/>gini = 0.49<br/>samples = 7<br/>value = [4, 3]<br/>class = 0>, fillcolor="#f8e0ce"] ;
132 -> 136 ;
137 [label=<gini = 0.0<br/>samples = 1<br/>value = [1, 0]<br/>class = 0>, fillcolor="#e58139"] ;
136 -> 137 ;
138 [label=<date &le; 3.5<br/>gini = 0.5<br/>samples = 6<br/>value = [3, 3]<br/>class = 0>, fillcolor="#ffffff"] ;
136 -> 138 ;
139 [label=<gini = 0.444<br/>samples = 3<br/>value = [1, 2]<br/>class = 1>, fillcolor="#9ccef2"] ;
138 -> 139 ;
140 [label=<gini = 0.444<br/>samples = 3<br/>value = [2, 1]<br/>class = 0>, fillcolor="#f2c09c"] ;
138 -> 140 ;
141 [label=<hour &le; 6.5<br/>gini = 0.426<br/>samples = 13<br/>value = [9, 4]<br/>class = 0>, fillcolor="#f1b991"] ;
125 -> 141 ;
142 [label=<date &le; 5.5<br/>gini = 0.5<br/>samples = 8<br/>value = [4, 4]<br/>class = 0>, fillcolor="#ffffff"] ;
141 -> 142 ;
143 [label=<gini = 0.0<br/>samples = 1<br/>value = [1, 0]<br/>class = 0>, fillcolor="#e58139"] ;
142 -> 143 ;
144 [label=<date &le; 6.5<br/>gini = 0.49<br/>samples = 7<br/>value = [3, 4]<br/>class = 1>, fillcolor="#cee6f8"] ;
142 -> 144 ;
145 [label=<hour &le; 5.0<br/>gini = 0.444<br/>samples = 3<br/>value = [1, 2]<br/>class = 1>, fillcolor="#9ccef2"] ;
144 -> 145 ;
146 [label=<gini = 0.0<br/>samples = 1<br/>value = [0, 1]<br/>class = 1>, fillcolor="#399de5"] ;
145 -> 146 ;
147 [label=<gini = 0.5<br/>samples = 2<br/>value = [1, 1]<br/>class = 0>, fillcolor="#ffffff"] ;
145 -> 147 ;
148 [label=<hour &le; 4.5<br/>gini = 0.5<br/>samples = 4<br/>value = [2, 2]<br/>class = 0>, fillcolor="#ffffff"] ;
144 -> 148 ;
149 [label=<gini = 0.0<br/>samples = 1<br/>value = [1, 0]<br/>class = 0>, fillcolor="#e58139"] ;
148 -> 149 ;
150 [label=<hour &le; 5.5<br/>gini = 0.444<br/>samples = 3<br/>value = [1, 2]<br/>class = 1>, fillcolor="#9ccef2"] ;
148 -> 150 ;
151 [label=<gini = 0.5<br/>samples = 2<br/>value = [1, 1]<br/>class = 0>, fillcolor="#ffffff"] ;
150 -> 151 ;
152 [label=<gini = 0.0<br/>samples = 1<br/>value = [0, 1]<br/>class = 1>, fillcolor="#399de5"] ;
150 -> 152 ;
153 [label=<gini = 0.0<br/>samples = 5<br/>value = [5, 0]<br/>class = 0>, fillcolor="#e58139"] ;
141 -> 153 ;
154 [label=<gini = 0.0<br/>samples = 1<br/>value = [1, 0]<br/>class = 0>, fillcolor="#e58139"] ;
124 -> 154 ;
155 [label=<hour &le; 4.5<br/>gini = 0.495<br/>samples = 60<br/>value = [27, 33]<br/>class = 1>, fillcolor="#dbedfa"] ;
123 -> 155 ;
156 [label=<date &le; 4.5<br/>gini = 0.375<br/>samples = 8<br/>value = [2, 6]<br/>class = 1>, fillcolor="#7bbeee"] ;
155 -> 156 ;
157 [label=<date &le; 3.5<br/>gini = 0.48<br/>samples = 5<br/>value = [2, 3]<br/>class = 1>, fillcolor="#bddef6"] ;
156 -> 157 ;
158 [label=<gini = 0.375<br/>samples = 4<br/>value = [1, 3]<br/>class = 1>, fillcolor="#7bbeee"] ;
157 -> 158 ;
159 [label=<gini = 0.0<br/>samples = 1<br/>value = [1, 0]<br/>class = 0>, fillcolor="#e58139"] ;
157 -> 159 ;
160 [label=<gini = 0.0<br/>samples = 3<br/>value = [0, 3]<br/>class = 1>, fillcolor="#399de5"] ;
156 -> 160 ;
161 [label=<date &le; 6.5<br/>gini = 0.499<br/>samples = 52<br/>value = [25, 27]<br/>class = 1>, fillcolor="#f0f8fd"] ;
155 -> 161 ;
162 [label=<hour &le; 7.5<br/>gini = 0.494<br/>samples = 45<br/>value = [20, 25]<br/>class = 1>, fillcolor="#d7ebfa"] ;
161 -> 162 ;
163 [label=<date &le; 3.5<br/>gini = 0.455<br/>samples = 20<br/>value = [7, 13]<br/>class = 1>, fillcolor="#a4d2f3"] ;
162 -> 163 ;
164 [label=<hour &le; 5.5<br/>gini = 0.5<br/>samples = 8<br/>value = [4, 4]<br/>class = 0>, fillcolor="#ffffff"] ;
163 -> 164 ;
165 [label=<gini = 0.0<br/>samples = 2<br/>value = [2, 0]<br/>class = 0>, fillcolor="#e58139"] ;
164 -> 165 ;
166 [label=<hour &le; 6.5<br/>gini = 0.444<br/>samples = 6<br/>value = [2, 4]<br/>class = 1>, fillcolor="#9ccef2"] ;
164 -> 166 ;
167 [label=<gini = 0.32<br/>samples = 5<br/>value = [1, 4]<br/>class = 1>, fillcolor="#6ab6ec"] ;
166 -> 167 ;
168 [label=<gini = 0.0<br/>samples = 1<br/>value = [1, 0]<br/>class = 0>, fillcolor="#e58139"] ;
166 -> 168 ;
169 [label=<date &le; 5.5<br/>gini = 0.375<br/>samples = 12<br/>value = [3, 9]<br/>class = 1>, fillcolor="#7bbeee"] ;
163 -> 169 ;
170 [label=<gini = 0.0<br/>samples = 5<br/>value = [0, 5]<br/>class = 1>, fillcolor="#399de5"] ;
169 -> 170 ;
171 [label=<hour &le; 6.5<br/>gini = 0.49<br/>samples = 7<br/>value = [3, 4]<br/>class = 1>, fillcolor="#cee6f8"] ;
169 -> 171 ;
172 [label=<hour &le; 5.5<br/>gini = 0.48<br/>samples = 5<br/>value = [3, 2]<br/>class = 0>, fillcolor="#f6d5bd"] ;
171 -> 172 ;
173 [label=<gini = 0.5<br/>samples = 2<br/>value = [1, 1]<br/>class = 0>, fillcolor="#ffffff"] ;
172 -> 173 ;
174 [label=<gini = 0.444<br/>samples = 3<br/>value = [2, 1]<br/>class = 0>, fillcolor="#f2c09c"] ;
172 -> 174 ;
175 [label=<gini = 0.0<br/>samples = 2<br/>value = [0, 2]<br/>class = 1>, fillcolor="#399de5"] ;
171 -> 175 ;
176 [label=<hour &le; 8.5<br/>gini = 0.499<br/>samples = 25<br/>value = [13, 12]<br/>class = 0>, fillcolor="#fdf5f0"] ;
162 -> 176 ;
177 [label=<browser &le; 1.5<br/>gini = 0.397<br/>samples = 11<br/>value = [8, 3]<br/>class = 0>, fillcolor="#efb083"] ;
176 -> 177 ;
178 [label=<date &le; 5.5<br/>gini = 0.42<br/>samples = 10<br/>value = [7, 3]<br/>class = 0>, fillcolor="#f0b78e"] ;
177 -> 178 ;
179 [label=<date &le; 3.5<br/>gini = 0.32<br/>samples = 5<br/>value = [4, 1]<br/>class = 0>, fillcolor="#eca06a"] ;
178 -> 179 ;
180 [label=<gini = 0.444<br/>samples = 3<br/>value = [2, 1]<br/>class = 0>, fillcolor="#f2c09c"] ;
179 -> 180 ;
181 [label=<gini = 0.0<br/>samples = 2<br/>value = [2, 0]<br/>class = 0>, fillcolor="#e58139"] ;
179 -> 181 ;
182 [label=<gini = 0.48<br/>samples = 5<br/>value = [3, 2]<br/>class = 0>, fillcolor="#f6d5bd"] ;
178 -> 182 ;
183 [label=<gini = 0.0<br/>samples = 1<br/>value = [1, 0]<br/>class = 0>, fillcolor="#e58139"] ;
177 -> 183 ;
184 [label=<date &le; 3.5<br/>gini = 0.459<br/>samples = 14<br/>value = [5, 9]<br/>class = 1>, fillcolor="#a7d3f3"] ;
176 -> 184 ;
185 [label=<hour &le; 9.5<br/>gini = 0.5<br/>samples = 6<br/>value = [3, 3]<br/>class = 0>, fillcolor="#ffffff"] ;
184 -> 185 ;
186 [label=<gini = 0.5<br/>samples = 4<br/>value = [2, 2]<br/>class = 0>, fillcolor="#ffffff"] ;
185 -> 186 ;
187 [label=<gini = 0.5<br/>samples = 2<br/>value = [1, 1]<br/>class = 0>, fillcolor="#ffffff"] ;
185 -> 187 ;
188 [label=<date &le; 5.0<br/>gini = 0.375<br/>samples = 8<br/>value = [2, 6]<br/>class = 1>, fillcolor="#7bbeee"] ;
184 -> 188 ;
189 [label=<gini = 0.0<br/>samples = 3<br/>value = [0, 3]<br/>class = 1>, fillcolor="#399de5"] ;
188 -> 189 ;
190 [label=<hour &le; 9.5<br/>gini = 0.48<br/>samples = 5<br/>value = [2, 3]<br/>class = 1>, fillcolor="#bddef6"] ;
188 -> 190 ;
191 [label=<browser &le; 1.5<br/>gini = 0.375<br/>samples = 4<br/>value = [1, 3]<br/>class = 1>, fillcolor="#7bbeee"] ;
190 -> 191 ;
192 [label=<gini = 0.444<br/>samples = 3<br/>value = [1, 2]<br/>class = 1>, fillcolor="#9ccef2"] ;
191 -> 192 ;
193 [label=<gini = 0.0<br/>samples = 1<br/>value = [0, 1]<br/>class = 1>, fillcolor="#399de5"] ;
191 -> 193 ;
194 [label=<gini = 0.0<br/>samples = 1<br/>value = [1, 0]<br/>class = 0>, fillcolor="#e58139"] ;
190 -> 194 ;
195 [label=<hour &le; 5.5<br/>gini = 0.408<br/>samples = 7<br/>value = [5, 2]<br/>class = 0>, fillcolor="#efb388"] ;
161 -> 195 ;
196 [label=<gini = 0.0<br/>samples = 2<br/>value = [2, 0]<br/>class = 0>, fillcolor="#e58139"] ;
195 -> 196 ;
197 [label=<hour &le; 8.5<br/>gini = 0.48<br/>samples = 5<br/>value = [3, 2]<br/>class = 0>, fillcolor="#f6d5bd"] ;
195 -> 197 ;
198 [label=<hour &le; 7.5<br/>gini = 0.5<br/>samples = 4<br/>value = [2, 2]<br/>class = 0>, fillcolor="#ffffff"] ;
197 -> 198 ;
199 [label=<hour &le; 6.5<br/>gini = 0.444<br/>samples = 3<br/>value = [2, 1]<br/>class = 0>, fillcolor="#f2c09c"] ;
198 -> 199 ;
200 [label=<gini = 0.5<br/>samples = 2<br/>value = [1, 1]<br/>class = 0>, fillcolor="#ffffff"] ;
199 -> 200 ;
201 [label=<gini = 0.0<br/>samples = 1<br/>value = [1, 0]<br/>class = 0>, fillcolor="#e58139"] ;
199 -> 201 ;
202 [label=<gini = 0.0<br/>samples = 1<br/>value = [0, 1]<br/>class = 1>, fillcolor="#399de5"] ;
198 -> 202 ;
203 [label=<gini = 0.0<br/>samples = 1<br/>value = [1, 0]<br/>class = 0>, fillcolor="#e58139"] ;
197 -> 203 ;
204 [label=<experiment &le; 0.5<br/>gini = 0.367<br/>samples = 33<br/>value = [25, 8]<br/>class = 0>, fillcolor="#eda978"] ;
14 -> 204 ;
205 [label=<date &le; 1.5<br/>gini = 0.494<br/>samples = 9<br/>value = [5, 4]<br/>class = 0>, fillcolor="#fae6d7"] ;
204 -> 205 ;
206 [label=<hour &le; 11.5<br/>gini = 0.375<br/>samples = 4<br/>value = [3, 1]<br/>class = 0>, fillcolor="#eeab7b"] ;
205 -> 206 ;
207 [label=<gini = 0.5<br/>samples = 2<br/>value = [1, 1]<br/>class = 0>, fillcolor="#ffffff"] ;
206 -> 207 ;
208 [label=<gini = 0.0<br/>samples = 2<br/>value = [2, 0]<br/>class = 0>, fillcolor="#e58139"] ;
206 -> 208 ;
209 [label=<date &le; 6.5<br/>gini = 0.48<br/>samples = 5<br/>value = [2, 3]<br/>class = 1>, fillcolor="#bddef6"] ;
205 -> 209 ;
210 [label=<date &le; 4.0<br/>gini = 0.375<br/>samples = 4<br/>value = [1, 3]<br/>class = 1>, fillcolor="#7bbeee"] ;
209 -> 210 ;
211 [label=<hour &le; 11.5<br/>gini = 0.5<br/>samples = 2<br/>value = [1, 1]<br/>class = 0>, fillcolor="#ffffff"] ;
210 -> 211 ;
212 [label=<gini = 0.0<br/>samples = 1<br/>value = [0, 1]<br/>class = 1>, fillcolor="#399de5"] ;
211 -> 212 ;
213 [label=<gini = 0.0<br/>samples = 1<br/>value = [1, 0]<br/>class = 0>, fillcolor="#e58139"] ;
211 -> 213 ;
214 [label=<gini = 0.0<br/>samples = 2<br/>value = [0, 2]<br/>class = 1>, fillcolor="#399de5"] ;
210 -> 214 ;
215 [label=<gini = 0.0<br/>samples = 1<br/>value = [1, 0]<br/>class = 0>, fillcolor="#e58139"] ;
209 -> 215 ;
216 [label=<date &le; 0.5<br/>gini = 0.278<br/>samples = 24<br/>value = [20, 4]<br/>class = 0>, fillcolor="#ea9a61"] ;
204 -> 216 ;
217 [label=<gini = 0.0<br/>samples = 6<br/>value = [6, 0]<br/>class = 0>, fillcolor="#e58139"] ;
216 -> 217 ;
218 [label=<date &le; 6.5<br/>gini = 0.346<br/>samples = 18<br/>value = [14, 4]<br/>class = 0>, fillcolor="#eca572"] ;
216 -> 218 ;
219 [label=<date &le; 1.5<br/>gini = 0.391<br/>samples = 15<br/>value = [11, 4]<br/>class = 0>, fillcolor="#eeaf81"] ;
218 -> 219 ;
220 [label=<hour &le; 11.5<br/>gini = 0.5<br/>samples = 2<br/>value = [1, 1]<br/>class = 0>, fillcolor="#ffffff"] ;
219 -> 220 ;
221 [label=<gini = 0.0<br/>samples = 1<br/>value = [0, 1]<br/>class = 1>, fillcolor="#399de5"] ;
220 -> 221 ;
222 [label=<gini = 0.0<br/>samples = 1<br/>value = [1, 0]<br/>class = 0>, fillcolor="#e58139"] ;
220 -> 222 ;
223 [label=<date &le; 4.5<br/>gini = 0.355<br/>samples = 13<br/>value = [10, 3]<br/>class = 0>, fillcolor="#eda774"] ;
219 -> 223 ;
224 [label=<hour &le; 11.5<br/>gini = 0.245<br/>samples = 7<br/>value = [6, 1]<br/>class = 0>, fillcolor="#e9965a"] ;
223 -> 224 ;
225 [label=<browser &le; 1.5<br/>gini = 0.375<br/>samples = 4<br/>value = [3, 1]<br/>class = 0>, fillcolor="#eeab7b"] ;
224 -> 225 ;
226 [label=<date &le; 3.0<br/>gini = 0.444<br/>samples = 3<br/>value = [2, 1]<br/>class = 0>, fillcolor="#f2c09c"] ;
225 -> 226 ;
227 [label=<gini = 0.5<br/>samples = 2<br/>value = [1, 1]<br/>class = 0>, fillcolor="#ffffff"] ;
226 -> 227 ;
228 [label=<gini = 0.0<br/>samples = 1<br/>value = [1, 0]<br/>class = 0>, fillcolor="#e58139"] ;
226 -> 228 ;
229 [label=<gini = 0.0<br/>samples = 1<br/>value = [1, 0]<br/>class = 0>, fillcolor="#e58139"] ;
225 -> 229 ;
230 [label=<gini = 0.0<br/>samples = 3<br/>value = [3, 0]<br/>class = 0>, fillcolor="#e58139"] ;
224 -> 230 ;
231 [label=<date &le; 5.5<br/>gini = 0.444<br/>samples = 6<br/>value = [4, 2]<br/>class = 0>, fillcolor="#f2c09c"] ;
223 -> 231 ;
232 [label=<gini = 0.0<br/>samples = 1<br/>value = [0, 1]<br/>class = 1>, fillcolor="#399de5"] ;
231 -> 232 ;
233 [label=<hour &le; 11.5<br/>gini = 0.32<br/>samples = 5<br/>value = [4, 1]<br/>class = 0>, fillcolor="#eca06a"] ;
231 -> 233 ;
234 [label=<gini = 0.375<br/>samples = 4<br/>value = [3, 1]<br/>class = 0>, fillcolor="#eeab7b"] ;
233 -> 234 ;
235 [label=<gini = 0.0<br/>samples = 1<br/>value = [1, 0]<br/>class = 0>, fillcolor="#e58139"] ;
233 -> 235 ;
236 [label=<gini = 0.0<br/>samples = 3<br/>value = [3, 0]<br/>class = 0>, fillcolor="#e58139"] ;
218 -> 236 ;
237 [label=<browser &le; 1.5<br/>gini = 0.463<br/>samples = 11<br/>value = [4, 7]<br/>class = 1>, fillcolor="#aad5f4"] ;
13 -> 237 ;
238 [label=<date &le; 6.5<br/>gini = 0.245<br/>samples = 7<br/>value = [1, 6]<br/>class = 1>, fillcolor="#5aade9"] ;
237 -> 238 ;
239 [label=<gini = 0.0<br/>samples = 4<br/>value = [0, 4]<br/>class = 1>, fillcolor="#399de5"] ;
238 -> 239 ;
240 [label=<hour &le; 4.0<br/>gini = 0.444<br/>samples = 3<br/>value = [1, 2]<br/>class = 1>, fillcolor="#9ccef2"] ;
238 -> 240 ;
241 [label=<gini = 0.0<br/>samples = 1<br/>value = [1, 0]<br/>class = 0>, fillcolor="#e58139"] ;
240 -> 241 ;
242 [label=<gini = 0.0<br/>samples = 2<br/>value = [0, 2]<br/>class = 1>, fillcolor="#399de5"] ;
240 -> 242 ;
243 [label=<hour &le; 8.5<br/>gini = 0.375<br/>samples = 4<br/>value = [3, 1]<br/>class = 0>, fillcolor="#eeab7b"] ;
237 -> 243 ;
244 [label=<gini = 0.0<br/>samples = 3<br/>value = [3, 0]<br/>class = 0>, fillcolor="#e58139"] ;
243 -> 244 ;
245 [label=<gini = 0.0<br/>samples = 1<br/>value = [0, 1]<br/>class = 1>, fillcolor="#399de5"] ;
243 -> 245 ;
246 [label=<hour &le; 10.5<br/>gini = 0.32<br/>samples = 10<br/>value = [8, 2]<br/>class = 0>, fillcolor="#eca06a"] ;
12 -> 246 ;
247 [label=<hour &le; 3.5<br/>gini = 0.198<br/>samples = 9<br/>value = [8, 1]<br/>class = 0>, fillcolor="#e89152"] ;
246 -> 247 ;
248 [label=<date &le; 1.5<br/>gini = 0.5<br/>samples = 2<br/>value = [1, 1]<br/>class = 0>, fillcolor="#ffffff"] ;
247 -> 248 ;
249 [label=<gini = 0.0<br/>samples = 1<br/>value = [1, 0]<br/>class = 0>, fillcolor="#e58139"] ;
248 -> 249 ;
250 [label=<gini = 0.0<br/>samples = 1<br/>value = [0, 1]<br/>class = 1>, fillcolor="#399de5"] ;
248 -> 250 ;
251 [label=<gini = 0.0<br/>samples = 7<br/>value = [7, 0]<br/>class = 0>, fillcolor="#e58139"] ;
247 -> 251 ;
252 [label=<gini = 0.0<br/>samples = 1<br/>value = [0, 1]<br/>class = 1>, fillcolor="#399de5"] ;
246 -> 252 ;
253 [label=<hour &le; 10.5<br/>gini = 0.219<br/>samples = 8<br/>value = [7, 1]<br/>class = 0>, fillcolor="#e99355"] ;
11 -> 253 ;
254 [label=<gini = 0.0<br/>samples = 7<br/>value = [7, 0]<br/>class = 0>, fillcolor="#e58139"] ;
253 -> 254 ;
255 [label=<gini = 0.0<br/>samples = 1<br/>value = [0, 1]<br/>class = 1>, fillcolor="#399de5"] ;
253 -> 255 ;
256 [label=<device_make &le; 46.5<br/>gini = 0.499<br/>samples = 93<br/>value = [48, 45]<br/>class = 0>, fillcolor="#fdf7f3"] ;
10 -> 256 ;
257 [label=<date &le; 0.5<br/>gini = 0.452<br/>samples = 29<br/>value = [10, 19]<br/>class = 1>, fillcolor="#a1d1f3"] ;
256 -> 257 ;
258 [label=<gini = 0.0<br/>samples = 5<br/>value = [0, 5]<br/>class = 1>, fillcolor="#399de5"] ;
257 -> 258 ;
259 [label=<experiment &le; 0.5<br/>gini = 0.486<br/>samples = 24<br/>value = [10, 14]<br/>class = 1>, fillcolor="#c6e3f8"] ;
257 -> 259 ;
260 [label=<date &le; 2.5<br/>gini = 0.391<br/>samples = 15<br/>value = [4, 11]<br/>class = 1>, fillcolor="#81c1ee"] ;
259 -> 260 ;
261 [label=<gini = 0.0<br/>samples = 3<br/>value = [3, 0]<br/>class = 0>, fillcolor="#e58139"] ;
260 -> 261 ;
262 [label=<device_make &le; 34.5<br/>gini = 0.153<br/>samples = 12<br/>value = [1, 11]<br/>class = 1>, fillcolor="#4ba6e7"] ;
260 -> 262 ;
263 [label=<device_make &le; 32.5<br/>gini = 0.375<br/>samples = 4<br/>value = [1, 3]<br/>class = 1>, fillcolor="#7bbeee"] ;
262 -> 263 ;
264 [label=<gini = 0.0<br/>samples = 2<br/>value = [0, 2]<br/>class = 1>, fillcolor="#399de5"] ;
263 -> 264 ;
265 [label=<date &le; 6.5<br/>gini = 0.5<br/>samples = 2<br/>value = [1, 1]<br/>class = 0>, fillcolor="#ffffff"] ;
263 -> 265 ;
266 [label=<gini = 0.0<br/>samples = 1<br/>value = [1, 0]<br/>class = 0>, fillcolor="#e58139"] ;
265 -> 266 ;
267 [label=<gini = 0.0<br/>samples = 1<br/>value = [0, 1]<br/>class = 1>, fillcolor="#399de5"] ;
265 -> 267 ;
268 [label=<gini = 0.0<br/>samples = 8<br/>value = [0, 8]<br/>class = 1>, fillcolor="#399de5"] ;
262 -> 268 ;
269 [label=<hour &le; 2.0<br/>gini = 0.444<br/>samples = 9<br/>value = [6, 3]<br/>class = 0>, fillcolor="#f2c09c"] ;
259 -> 269 ;
270 [label=<gini = 0.0<br/>samples = 2<br/>value = [0, 2]<br/>class = 1>, fillcolor="#399de5"] ;
269 -> 270 ;
271 [label=<device_make &le; 30.5<br/>gini = 0.245<br/>samples = 7<br/>value = [6, 1]<br/>class = 0>, fillcolor="#e9965a"] ;
269 -> 271 ;
272 [label=<gini = 0.0<br/>samples = 1<br/>value = [0, 1]<br/>class = 1>, fillcolor="#399de5"] ;
271 -> 272 ;
273 [label=<gini = 0.0<br/>samples = 6<br/>value = [6, 0]<br/>class = 0>, fillcolor="#e58139"] ;
271 -> 273 ;
274 [label=<experiment &le; 0.5<br/>gini = 0.482<br/>samples = 64<br/>value = [38, 26]<br/>class = 0>, fillcolor="#f7d7c0"] ;
256 -> 274 ;
275 [label=<hour &le; 9.5<br/>gini = 0.499<br/>samples = 25<br/>value = [12, 13]<br/>class = 1>, fillcolor="#f0f7fd"] ;
274 -> 275 ;
276 [label=<device_make &le; 66.5<br/>gini = 0.475<br/>samples = 18<br/>value = [11, 7]<br/>class = 0>, fillcolor="#f6d1b7"] ;
275 -> 276 ;
277 [label=<device_make &le; 49.5<br/>gini = 0.408<br/>samples = 14<br/>value = [10, 4]<br/>class = 0>, fillcolor="#efb388"] ;
276 -> 277 ;
278 [label=<gini = 0.0<br/>samples = 1<br/>value = [0, 1]<br/>class = 1>, fillcolor="#399de5"] ;
277 -> 278 ;
279 [label=<device_make &le; 65.5<br/>gini = 0.355<br/>samples = 13<br/>value = [10, 3]<br/>class = 0>, fillcolor="#eda774"] ;
277 -> 279 ;
280 [label=<date &le; 3.5<br/>gini = 0.444<br/>samples = 9<br/>value = [6, 3]<br/>class = 0>, fillcolor="#f2c09c"] ;
279 -> 280 ;
281 [label=<gini = 0.0<br/>samples = 4<br/>value = [4, 0]<br/>class = 0>, fillcolor="#e58139"] ;
280 -> 281 ;
282 [label=<hour &le; 3.5<br/>gini = 0.48<br/>samples = 5<br/>value = [2, 3]<br/>class = 1>, fillcolor="#bddef6"] ;
280 -> 282 ;
283 [label=<gini = 0.0<br/>samples = 2<br/>value = [2, 0]<br/>class = 0>, fillcolor="#e58139"] ;
282 -> 283 ;
284 [label=<gini = 0.0<br/>samples = 3<br/>value = [0, 3]<br/>class = 1>, fillcolor="#399de5"] ;
282 -> 284 ;
285 [label=<gini = 0.0<br/>samples = 4<br/>value = [4, 0]<br/>class = 0>, fillcolor="#e58139"] ;
279 -> 285 ;
286 [label=<hour &le; 2.5<br/>gini = 0.375<br/>samples = 4<br/>value = [1, 3]<br/>class = 1>, fillcolor="#7bbeee"] ;
276 -> 286 ;
287 [label=<gini = 0.0<br/>samples = 1<br/>value = [1, 0]<br/>class = 0>, fillcolor="#e58139"] ;
286 -> 287 ;
288 [label=<gini = 0.0<br/>samples = 3<br/>value = [0, 3]<br/>class = 1>, fillcolor="#399de5"] ;
286 -> 288 ;
289 [label=<browser &le; 3.0<br/>gini = 0.245<br/>samples = 7<br/>value = [1, 6]<br/>class = 1>, fillcolor="#5aade9"] ;
275 -> 289 ;
290 [label=<gini = 0.0<br/>samples = 1<br/>value = [1, 0]<br/>class = 0>, fillcolor="#e58139"] ;
289 -> 290 ;
291 [label=<gini = 0.0<br/>samples = 6<br/>value = [0, 6]<br/>class = 1>, fillcolor="#399de5"] ;
289 -> 291 ;
292 [label=<device_make &le; 59.5<br/>gini = 0.444<br/>samples = 39<br/>value = [26, 13]<br/>class = 0>, fillcolor="#f2c09c"] ;
274 -> 292 ;
293 [label=<hour &le; 6.5<br/>gini = 0.278<br/>samples = 12<br/>value = [10, 2]<br/>class = 0>, fillcolor="#ea9a61"] ;
292 -> 293 ;
294 [label=<date &le; 4.5<br/>gini = 0.5<br/>samples = 4<br/>value = [2, 2]<br/>class = 0>, fillcolor="#ffffff"] ;
293 -> 294 ;
295 [label=<gini = 0.0<br/>samples = 2<br/>value = [0, 2]<br/>class = 1>, fillcolor="#399de5"] ;
294 -> 295 ;
296 [label=<gini = 0.0<br/>samples = 2<br/>value = [2, 0]<br/>class = 0>, fillcolor="#e58139"] ;
294 -> 296 ;
297 [label=<gini = 0.0<br/>samples = 8<br/>value = [8, 0]<br/>class = 0>, fillcolor="#e58139"] ;
293 -> 297 ;
298 [label=<date &le; 5.0<br/>gini = 0.483<br/>samples = 27<br/>value = [16, 11]<br/>class = 0>, fillcolor="#f7d8c1"] ;
292 -> 298 ;
299 [label=<browser &le; 5.5<br/>gini = 0.432<br/>samples = 19<br/>value = [13, 6]<br/>class = 0>, fillcolor="#f1bb94"] ;
298 -> 299 ;
300 [label=<hour &le; 10.5<br/>gini = 0.48<br/>samples = 15<br/>value = [9, 6]<br/>class = 0>, fillcolor="#f6d5bd"] ;
299 -> 300 ;
301 [label=<device_make &le; 64.0<br/>gini = 0.426<br/>samples = 13<br/>value = [9, 4]<br/>class = 0>, fillcolor="#f1b991"] ;
300 -> 301 ;
302 [label=<hour &le; 9.0<br/>gini = 0.48<br/>samples = 5<br/>value = [2, 3]<br/>class = 1>, fillcolor="#bddef6"] ;
301 -> 302 ;
303 [label=<hour &le; 7.5<br/>gini = 0.375<br/>samples = 4<br/>value = [1, 3]<br/>class = 1>, fillcolor="#7bbeee"] ;
302 -> 303 ;
304 [label=<date &le; 1.5<br/>gini = 0.5<br/>samples = 2<br/>value = [1, 1]<br/>class = 0>, fillcolor="#ffffff"] ;
303 -> 304 ;
305 [label=<gini = 0.0<br/>samples = 1<br/>value = [1, 0]<br/>class = 0>, fillcolor="#e58139"] ;
304 -> 305 ;
306 [label=<gini = 0.0<br/>samples = 1<br/>value = [0, 1]<br/>class = 1>, fillcolor="#399de5"] ;
304 -> 306 ;
307 [label=<gini = 0.0<br/>samples = 2<br/>value = [0, 2]<br/>class = 1>, fillcolor="#399de5"] ;
303 -> 307 ;
308 [label=<gini = 0.0<br/>samples = 1<br/>value = [1, 0]<br/>class = 0>, fillcolor="#e58139"] ;
302 -> 308 ;
309 [label=<browser &le; 3.0<br/>gini = 0.219<br/>samples = 8<br/>value = [7, 1]<br/>class = 0>, fillcolor="#e99355"] ;
301 -> 309 ;
310 [label=<gini = 0.0<br/>samples = 6<br/>value = [6, 0]<br/>class = 0>, fillcolor="#e58139"] ;
309 -> 310 ;
311 [label=<hour &le; 6.5<br/>gini = 0.5<br/>samples = 2<br/>value = [1, 1]<br/>class = 0>, fillcolor="#ffffff"] ;
309 -> 311 ;
312 [label=<gini = 0.0<br/>samples = 1<br/>value = [1, 0]<br/>class = 0>, fillcolor="#e58139"] ;
311 -> 312 ;
313 [label=<gini = 0.0<br/>samples = 1<br/>value = [0, 1]<br/>class = 1>, fillcolor="#399de5"] ;
311 -> 313 ;
314 [label=<gini = 0.0<br/>samples = 2<br/>value = [0, 2]<br/>class = 1>, fillcolor="#399de5"] ;
300 -> 314 ;
315 [label=<gini = 0.0<br/>samples = 4<br/>value = [4, 0]<br/>class = 0>, fillcolor="#e58139"] ;
299 -> 315 ;
316 [label=<date &le; 6.5<br/>gini = 0.469<br/>samples = 8<br/>value = [3, 5]<br/>class = 1>, fillcolor="#b0d8f5"] ;
298 -> 316 ;
317 [label=<gini = 0.0<br/>samples = 4<br/>value = [0, 4]<br/>class = 1>, fillcolor="#399de5"] ;
316 -> 317 ;
318 [label=<browser &le; 3.0<br/>gini = 0.375<br/>samples = 4<br/>value = [3, 1]<br/>class = 0>, fillcolor="#eeab7b"] ;
316 -> 318 ;
319 [label=<gini = 0.0<br/>samples = 1<br/>value = [0, 1]<br/>class = 1>, fillcolor="#399de5"] ;
318 -> 319 ;
320 [label=<gini = 0.0<br/>samples = 3<br/>value = [3, 0]<br/>class = 0>, fillcolor="#e58139"] ;
318 -> 320 ;
321 [label=<date &le; 6.5<br/>gini = 0.499<br/>samples = 364<br/>value = [191, 173]<br/>class = 0>, fillcolor="#fdf3ec"] ;
3 -> 321 ;
322 [label=<hour &le; 13.5<br/>gini = 0.498<br/>samples = 350<br/>value = [187, 163]<br/>class = 0>, fillcolor="#fcefe6"] ;
321 -> 322 ;
323 [label=<device_make &le; 65.5<br/>gini = 0.473<br/>samples = 26<br/>value = [10, 16]<br/>class = 1>, fillcolor="#b5daf5"] ;
322 -> 323 ;
324 [label=<experiment &le; 0.5<br/>gini = 0.434<br/>samples = 22<br/>value = [7, 15]<br/>class = 1>, fillcolor="#95cbf1"] ;
323 -> 324 ;
325 [label=<date &le; 2.5<br/>gini = 0.444<br/>samples = 3<br/>value = [2, 1]<br/>class = 0>, fillcolor="#f2c09c"] ;
324 -> 325 ;
326 [label=<gini = 0.0<br/>samples = 1<br/>value = [1, 0]<br/>class = 0>, fillcolor="#e58139"] ;
325 -> 326 ;
327 [label=<gini = 0.5<br/>samples = 2<br/>value = [1, 1]<br/>class = 0>, fillcolor="#ffffff"] ;
325 -> 327 ;
328 [label=<date &le; 4.5<br/>gini = 0.388<br/>samples = 19<br/>value = [5, 14]<br/>class = 1>, fillcolor="#80c0ee"] ;
324 -> 328 ;
329 [label=<date &le; 1.5<br/>gini = 0.278<br/>samples = 12<br/>value = [2, 10]<br/>class = 1>, fillcolor="#61b1ea"] ;
328 -> 329 ;
330 [label=<device_make &le; 11.5<br/>gini = 0.375<br/>samples = 8<br/>value = [2, 6]<br/>class = 1>, fillcolor="#7bbeee"] ;
329 -> 330 ;
331 [label=<gini = 0.0<br/>samples = 1<br/>value = [0, 1]<br/>class = 1>, fillcolor="#399de5"] ;
330 -> 331 ;
332 [label=<date &le; 0.5<br/>gini = 0.408<br/>samples = 7<br/>value = [2, 5]<br/>class = 1>, fillcolor="#88c4ef"] ;
330 -> 332 ;
333 [label=<browser &le; 1.5<br/>gini = 0.32<br/>samples = 5<br/>value = [1, 4]<br/>class = 1>, fillcolor="#6ab6ec"] ;
332 -> 333 ;
334 [label=<gini = 0.0<br/>samples = 3<br/>value = [0, 3]<br/>class = 1>, fillcolor="#399de5"] ;
333 -> 334 ;
335 [label=<device_make &le; 20.5<br/>gini = 0.5<br/>samples = 2<br/>value = [1, 1]<br/>class = 0>, fillcolor="#ffffff"] ;
333 -> 335 ;
336 [label=<gini = 0.0<br/>samples = 1<br/>value = [1, 0]<br/>class = 0>, fillcolor="#e58139"] ;
335 -> 336 ;
337 [label=<gini = 0.0<br/>samples = 1<br/>value = [0, 1]<br/>class = 1>, fillcolor="#399de5"] ;
335 -> 337 ;
338 [label=<gini = 0.5<br/>samples = 2<br/>value = [1, 1]<br/>class = 0>, fillcolor="#ffffff"] ;
332 -> 338 ;
339 [label=<gini = 0.0<br/>samples = 4<br/>value = [0, 4]<br/>class = 1>, fillcolor="#399de5"] ;
329 -> 339 ;
340 [label=<date &le; 5.5<br/>gini = 0.49<br/>samples = 7<br/>value = [3, 4]<br/>class = 1>, fillcolor="#cee6f8"] ;
328 -> 340 ;
341 [label=<device_make &le; 28.0<br/>gini = 0.444<br/>samples = 3<br/>value = [2, 1]<br/>class = 0>, fillcolor="#f2c09c"] ;
340 -> 341 ;
342 [label=<gini = 0.5<br/>samples = 2<br/>value = [1, 1]<br/>class = 0>, fillcolor="#ffffff"] ;
341 -> 342 ;
343 [label=<gini = 0.0<br/>samples = 1<br/>value = [1, 0]<br/>class = 0>, fillcolor="#e58139"] ;
341 -> 343 ;
344 [label=<device_make &le; 20.0<br/>gini = 0.375<br/>samples = 4<br/>value = [1, 3]<br/>class = 1>, fillcolor="#7bbeee"] ;
340 -> 344 ;
345 [label=<gini = 0.5<br/>samples = 2<br/>value = [1, 1]<br/>class = 0>, fillcolor="#ffffff"] ;
344 -> 345 ;
346 [label=<gini = 0.0<br/>samples = 2<br/>value = [0, 2]<br/>class = 1>, fillcolor="#399de5"] ;
344 -> 346 ;
347 [label=<browser &le; 3.0<br/>gini = 0.375<br/>samples = 4<br/>value = [3, 1]<br/>class = 0>, fillcolor="#eeab7b"] ;
323 -> 347 ;
348 [label=<gini = 0.0<br/>samples = 1<br/>value = [0, 1]<br/>class = 1>, fillcolor="#399de5"] ;
347 -> 348 ;
349 [label=<gini = 0.0<br/>samples = 3<br/>value = [3, 0]<br/>class = 0>, fillcolor="#e58139"] ;
347 -> 349 ;
350 [label=<device_make &le; 9.0<br/>gini = 0.496<br/>samples = 324<br/>value = [177, 147]<br/>class = 0>, fillcolor="#fbeadd"] ;
322 -> 350 ;
351 [label=<date &le; 0.5<br/>gini = 0.375<br/>samples = 8<br/>value = [6, 2]<br/>class = 0>, fillcolor="#eeab7b"] ;
350 -> 351 ;
352 [label=<browser &le; 3.0<br/>gini = 0.48<br/>samples = 5<br/>value = [3, 2]<br/>class = 0>, fillcolor="#f6d5bd"] ;
351 -> 352 ;
353 [label=<gini = 0.0<br/>samples = 2<br/>value = [2, 0]<br/>class = 0>, fillcolor="#e58139"] ;
352 -> 353 ;
354 [label=<device_make &le; 3.0<br/>gini = 0.444<br/>samples = 3<br/>value = [1, 2]<br/>class = 1>, fillcolor="#9ccef2"] ;
352 -> 354 ;
355 [label=<gini = 0.5<br/>samples = 2<br/>value = [1, 1]<br/>class = 0>, fillcolor="#ffffff"] ;
354 -> 355 ;
356 [label=<gini = 0.0<br/>samples = 1<br/>value = [0, 1]<br/>class = 1>, fillcolor="#399de5"] ;
354 -> 356 ;
357 [label=<gini = 0.0<br/>samples = 3<br/>value = [3, 0]<br/>class = 0>, fillcolor="#e58139"] ;
351 -> 357 ;
358 [label=<device_make &le; 12.5<br/>gini = 0.497<br/>samples = 316<br/>value = [171, 145]<br/>class = 0>, fillcolor="#fbece1"] ;
350 -> 358 ;
359 [label=<gini = 0.0<br/>samples = 2<br/>value = [0, 2]<br/>class = 1>, fillcolor="#399de5"] ;
358 -> 359 ;
360 [label=<hour &le; 19.5<br/>gini = 0.496<br/>samples = 314<br/>value = [171, 143]<br/>class = 0>, fillcolor="#fbeadf"] ;
358 -> 360 ;
361 [label=<device_make &le; 51.5<br/>gini = 0.494<br/>samples = 291<br/>value = [161, 130]<br/>class = 0>, fillcolor="#fae7d9"] ;
360 -> 361 ;
362 [label=<device_make &le; 49.5<br/>gini = 0.492<br/>samples = 250<br/>value = [141, 109]<br/>class = 0>, fillcolor="#f9e2d2"] ;
361 -> 362 ;
363 [label=<device_make &le; 47.5<br/>gini = 0.494<br/>samples = 246<br/>value = [137, 109]<br/>class = 0>, fillcolor="#fae5d7"] ;
362 -> 363 ;
364 [label=<hour &le; 18.5<br/>gini = 0.492<br/>samples = 243<br/>value = [137, 106]<br/>class = 0>, fillcolor="#f9e2d2"] ;
363 -> 364 ;
365 [label=<device_make &le; 37.0<br/>gini = 0.494<br/>samples = 224<br/>value = [124, 100]<br/>class = 0>, fillcolor="#fae7d9"] ;
364 -> 365 ;
366 [label=<device_make &le; 19.5<br/>gini = 0.497<br/>samples = 198<br/>value = [107, 91]<br/>class = 0>, fillcolor="#fbece1"] ;
365 -> 366 ;
367 [label=<date &le; 1.5<br/>gini = 0.494<br/>samples = 182<br/>value = [101, 81]<br/>class = 0>, fillcolor="#fae6d8"] ;
366 -> 367 ;
368 [label=<hour &le; 14.5<br/>gini = 0.484<br/>samples = 107<br/>value = [63, 44]<br/>class = 0>, fillcolor="#f7d9c3"] ;
367 -> 368 ;
369 [label=<experiment &le; 0.5<br/>gini = 0.278<br/>samples = 6<br/>value = [5, 1]<br/>class = 0>, fillcolor="#ea9a61"] ;
368 -> 369 ;
370 [label=<gini = 0.0<br/>samples = 2<br/>value = [2, 0]<br/>class = 0>, fillcolor="#e58139"] ;
369 -> 370 ;
371 [label=<date &le; 0.5<br/>gini = 0.375<br/>samples = 4<br/>value = [3, 1]<br/>class = 0>, fillcolor="#eeab7b"] ;
369 -> 371 ;
372 [label=<gini = 0.0<br/>samples = 1<br/>value = [1, 0]<br/>class = 0>, fillcolor="#e58139"] ;
371 -> 372 ;
373 [label=<gini = 0.444<br/>samples = 3<br/>value = [2, 1]<br/>class = 0>, fillcolor="#f2c09c"] ;
371 -> 373 ;
374 [label=<hour &le; 17.5<br/>gini = 0.489<br/>samples = 101<br/>value = [58, 43]<br/>class = 0>, fillcolor="#f8decc"] ;
368 -> 374 ;
375 [label=<experiment &le; 0.5<br/>gini = 0.487<br/>samples = 100<br/>value = [58, 42]<br/>class = 0>, fillcolor="#f8dcc8"] ;
374 -> 375 ;
376 [label=<browser &le; 0.5<br/>gini = 0.493<br/>samples = 93<br/>value = [52, 41]<br/>class = 0>, fillcolor="#fae4d5"] ;
375 -> 376 ;
377 [label=<gini = 0.0<br/>samples = 1<br/>value = [1, 0]<br/>class = 0>, fillcolor="#e58139"] ;
376 -> 377 ;
378 [label=<hour &le; 16.5<br/>gini = 0.494<br/>samples = 92<br/>value = [51, 41]<br/>class = 0>, fillcolor="#fae6d8"] ;
376 -> 378 ;
379 [label=<date &le; 0.5<br/>gini = 0.495<br/>samples = 91<br/>value = [50, 41]<br/>class = 0>, fillcolor="#fae8db"] ;
378 -> 379 ;
380 [label=<browser &le; 2.5<br/>gini = 0.492<br/>samples = 89<br/>value = [50, 39]<br/>class = 0>, fillcolor="#f9e3d3"] ;
379 -> 380 ;
381 [label=<gini = 0.492<br/>samples = 87<br/>value = [49, 38]<br/>class = 0>, fillcolor="#f9e3d3"] ;
380 -> 381 ;
382 [label=<gini = 0.5<br/>samples = 2<br/>value = [1, 1]<br/>class = 0>, fillcolor="#ffffff"] ;
380 -> 382 ;
383 [label=<gini = 0.0<br/>samples = 2<br/>value = [0, 2]<br/>class = 1>, fillcolor="#399de5"] ;
379 -> 383 ;
384 [label=<gini = 0.0<br/>samples = 1<br/>value = [1, 0]<br/>class = 0>, fillcolor="#e58139"] ;
378 -> 384 ;
385 [label=<hour &le; 15.5<br/>gini = 0.245<br/>samples = 7<br/>value = [6, 1]<br/>class = 0>, fillcolor="#e9965a"] ;
375 -> 385 ;
386 [label=<gini = 0.0<br/>samples = 3<br/>value = [3, 0]<br/>class = 0>, fillcolor="#e58139"] ;
385 -> 386 ;
387 [label=<hour &le; 16.5<br/>gini = 0.375<br/>samples = 4<br/>value = [3, 1]<br/>class = 0>, fillcolor="#eeab7b"] ;
385 -> 387 ;
388 [label=<gini = 0.5<br/>samples = 2<br/>value = [1, 1]<br/>class = 0>, fillcolor="#ffffff"] ;
387 -> 388 ;
389 [label=<gini = 0.0<br/>samples = 2<br/>value = [2, 0]<br/>class = 0>, fillcolor="#e58139"] ;
387 -> 389 ;
390 [label=<gini = 0.0<br/>samples = 1<br/>value = [0, 1]<br/>class = 1>, fillcolor="#399de5"] ;
374 -> 390 ;
391 [label=<hour &le; 17.5<br/>gini = 0.5<br/>samples = 75<br/>value = [38, 37]<br/>class = 0>, fillcolor="#fefcfa"] ;
367 -> 391 ;
392 [label=<browser &le; 1.5<br/>gini = 0.496<br/>samples = 59<br/>value = [27, 32]<br/>class = 1>, fillcolor="#e0f0fb"] ;
391 -> 392 ;
393 [label=<hour &le; 16.5<br/>gini = 0.491<br/>samples = 53<br/>value = [23, 30]<br/>class = 1>, fillcolor="#d1e8f9"] ;
392 -> 393 ;
394 [label=<date &le; 3.0<br/>gini = 0.48<br/>samples = 40<br/>value = [16, 24]<br/>class = 1>, fillcolor="#bddef6"] ;
393 -> 394 ;
395 [label=<gini = 0.0<br/>samples = 4<br/>value = [0, 4]<br/>class = 1>, fillcolor="#399de5"] ;
394 -> 395 ;
396 [label=<date &le; 5.5<br/>gini = 0.494<br/>samples = 36<br/>value = [16, 20]<br/>class = 1>, fillcolor="#d7ebfa"] ;
394 -> 396 ;
397 [label=<experiment &le; 0.5<br/>gini = 0.473<br/>samples = 26<br/>value = [10, 16]<br/>class = 1>, fillcolor="#b5daf5"] ;
396 -> 397 ;
398 [label=<hour &le; 14.5<br/>gini = 0.49<br/>samples = 7<br/>value = [4, 3]<br/>class = 0>, fillcolor="#f8e0ce"] ;
397 -> 398 ;
399 [label=<gini = 0.0<br/>samples = 2<br/>value = [2, 0]<br/>class = 0>, fillcolor="#e58139"] ;
398 -> 399 ;
400 [label=<date &le; 4.5<br/>gini = 0.48<br/>samples = 5<br/>value = [2, 3]<br/>class = 1>, fillcolor="#bddef6"] ;
398 -> 400 ;
401 [label=<hour &le; 15.5<br/>gini = 0.5<br/>samples = 2<br/>value = [1, 1]<br/>class = 0>, fillcolor="#ffffff"] ;
400 -> 401 ;
402 [label=<gini = 0.0<br/>samples = 1<br/>value = [0, 1]<br/>class = 1>, fillcolor="#399de5"] ;
401 -> 402 ;
403 [label=<gini = 0.0<br/>samples = 1<br/>value = [1, 0]<br/>class = 0>, fillcolor="#e58139"] ;
401 -> 403 ;
404 [label=<hour &le; 15.5<br/>gini = 0.444<br/>samples = 3<br/>value = [1, 2]<br/>class = 1>, fillcolor="#9ccef2"] ;
400 -> 404 ;
405 [label=<gini = 0.5<br/>samples = 2<br/>value = [1, 1]<br/>class = 0>, fillcolor="#ffffff"] ;
404 -> 405 ;
406 [label=<gini = 0.0<br/>samples = 1<br/>value = [0, 1]<br/>class = 1>, fillcolor="#399de5"] ;
404 -> 406 ;
407 [label=<hour &le; 14.5<br/>gini = 0.432<br/>samples = 19<br/>value = [6, 13]<br/>class = 1>, fillcolor="#94caf1"] ;
397 -> 407 ;
408 [label=<gini = 0.0<br/>samples = 3<br/>value = [0, 3]<br/>class = 1>, fillcolor="#399de5"] ;
407 -> 408 ;
409 [label=<hour &le; 15.5<br/>gini = 0.469<br/>samples = 16<br/>value = [6, 10]<br/>class = 1>, fillcolor="#b0d8f5"] ;
407 -> 409 ;
410 [label=<gini = 0.5<br/>samples = 8<br/>value = [4, 4]<br/>class = 0>, fillcolor="#ffffff"] ;
409 -> 410 ;
411 [label=<gini = 0.375<br/>samples = 8<br/>value = [2, 6]<br/>class = 1>, fillcolor="#7bbeee"] ;
409 -> 411 ;
412 [label=<experiment &le; 0.5<br/>gini = 0.48<br/>samples = 10<br/>value = [6, 4]<br/>class = 0>, fillcolor="#f6d5bd"] ;
396 -> 412 ;
413 [label=<hour &le; 15.5<br/>gini = 0.5<br/>samples = 4<br/>value = [2, 2]<br/>class = 0>, fillcolor="#ffffff"] ;
412 -> 413 ;
414 [label=<hour &le; 14.5<br/>gini = 0.444<br/>samples = 3<br/>value = [2, 1]<br/>class = 0>, fillcolor="#f2c09c"] ;
413 -> 414 ;
415 [label=<gini = 0.5<br/>samples = 2<br/>value = [1, 1]<br/>class = 0>, fillcolor="#ffffff"] ;
414 -> 415 ;
416 [label=<gini = 0.0<br/>samples = 1<br/>value = [1, 0]<br/>class = 0>, fillcolor="#e58139"] ;
414 -> 416 ;
417 [label=<gini = 0.0<br/>samples = 1<br/>value = [0, 1]<br/>class = 1>, fillcolor="#399de5"] ;
413 -> 417 ;
418 [label=<hour &le; 15.0<br/>gini = 0.444<br/>samples = 6<br/>value = [4, 2]<br/>class = 0>, fillcolor="#f2c09c"] ;
412 -> 418 ;
419 [label=<gini = 0.48<br/>samples = 5<br/>value = [3, 2]<br/>class = 0>, fillcolor="#f6d5bd"] ;
418 -> 419 ;
420 [label=<gini = 0.0<br/>samples = 1<br/>value = [1, 0]<br/>class = 0>, fillcolor="#e58139"] ;
418 -> 420 ;
421 [label=<date &le; 3.0<br/>gini = 0.497<br/>samples = 13<br/>value = [7, 6]<br/>class = 0>, fillcolor="#fbede3"] ;
393 -> 421 ;
422 [label=<gini = 0.0<br/>samples = 2<br/>value = [2, 0]<br/>class = 0>, fillcolor="#e58139"] ;
421 -> 422 ;
423 [label=<experiment &le; 0.5<br/>gini = 0.496<br/>samples = 11<br/>value = [5, 6]<br/>class = 1>, fillcolor="#deeffb"] ;
421 -> 423 ;
424 [label=<date &le; 4.5<br/>gini = 0.375<br/>samples = 4<br/>value = [1, 3]<br/>class = 1>, fillcolor="#7bbeee"] ;
423 -> 424 ;
425 [label=<gini = 0.0<br/>samples = 1<br/>value = [0, 1]<br/>class = 1>, fillcolor="#399de5"] ;
424 -> 425 ;
426 [label=<date &le; 5.5<br/>gini = 0.444<br/>samples = 3<br/>value = [1, 2]<br/>class = 1>, fillcolor="#9ccef2"] ;
424 -> 426 ;
427 [label=<gini = 0.5<br/>samples = 2<br/>value = [1, 1]<br/>class = 0>, fillcolor="#ffffff"] ;
426 -> 427 ;
428 [label=<gini = 0.0<br/>samples = 1<br/>value = [0, 1]<br/>class = 1>, fillcolor="#399de5"] ;
426 -> 428 ;
429 [label=<date &le; 5.5<br/>gini = 0.49<br/>samples = 7<br/>value = [4, 3]<br/>class = 0>, fillcolor="#f8e0ce"] ;
423 -> 429 ;
430 [label=<gini = 0.375<br/>samples = 4<br/>value = [3, 1]<br/>class = 0>, fillcolor="#eeab7b"] ;
429 -> 430 ;
431 [label=<gini = 0.444<br/>samples = 3<br/>value = [1, 2]<br/>class = 1>, fillcolor="#9ccef2"] ;
429 -> 431 ;
432 [label=<date &le; 5.5<br/>gini = 0.444<br/>samples = 6<br/>value = [4, 2]<br/>class = 0>, fillcolor="#f2c09c"] ;
392 -> 432 ;
433 [label=<gini = 0.0<br/>samples = 4<br/>value = [4, 0]<br/>class = 0>, fillcolor="#e58139"] ;
432 -> 433 ;
434 [label=<gini = 0.0<br/>samples = 2<br/>value = [0, 2]<br/>class = 1>, fillcolor="#399de5"] ;
432 -> 434 ;
435 [label=<date &le; 5.5<br/>gini = 0.43<br/>samples = 16<br/>value = [11, 5]<br/>class = 0>, fillcolor="#f1ba93"] ;
391 -> 435 ;
436 [label=<experiment &le; 0.5<br/>gini = 0.486<br/>samples = 12<br/>value = [7, 5]<br/>class = 0>, fillcolor="#f8dbc6"] ;
435 -> 436 ;
437 [label=<date &le; 3.5<br/>gini = 0.278<br/>samples = 6<br/>value = [5, 1]<br/>class = 0>, fillcolor="#ea9a61"] ;
436 -> 437 ;
438 [label=<gini = 0.0<br/>samples = 1<br/>value = [1, 0]<br/>class = 0>, fillcolor="#e58139"] ;
437 -> 438 ;
439 [label=<gini = 0.32<br/>samples = 5<br/>value = [4, 1]<br/>class = 0>, fillcolor="#eca06a"] ;
437 -> 439 ;
440 [label=<date &le; 3.5<br/>gini = 0.444<br/>samples = 6<br/>value = [2, 4]<br/>class = 1>, fillcolor="#9ccef2"] ;
436 -> 440 ;
441 [label=<gini = 0.0<br/>samples = 1<br/>value = [0, 1]<br/>class = 1>, fillcolor="#399de5"] ;
440 -> 441 ;
442 [label=<gini = 0.48<br/>samples = 5<br/>value = [2, 3]<br/>class = 1>, fillcolor="#bddef6"] ;
440 -> 442 ;
443 [label=<gini = 0.0<br/>samples = 4<br/>value = [4, 0]<br/>class = 0>, fillcolor="#e58139"] ;
435 -> 443 ;
444 [label=<browser &le; 1.5<br/>gini = 0.469<br/>samples = 16<br/>value = [6, 10]<br/>class = 1>, fillcolor="#b0d8f5"] ;
366 -> 444 ;
445 [label=<gini = 0.0<br/>samples = 3<br/>value = [0, 3]<br/>class = 1>, fillcolor="#399de5"] ;
444 -> 445 ;
446 [label=<date &le; 5.5<br/>gini = 0.497<br/>samples = 13<br/>value = [6, 7]<br/>class = 1>, fillcolor="#e3f1fb"] ;
444 -> 446 ;
447 [label=<hour &le; 14.5<br/>gini = 0.486<br/>samples = 12<br/>value = [5, 7]<br/>class = 1>, fillcolor="#c6e3f8"] ;
446 -> 447 ;
448 [label=<gini = 0.0<br/>samples = 2<br/>value = [0, 2]<br/>class = 1>, fillcolor="#399de5"] ;
447 -> 448 ;
449 [label=<hour &le; 16.0<br/>gini = 0.5<br/>samples = 10<br/>value = [5, 5]<br/>class = 0>, fillcolor="#ffffff"] ;
447 -> 449 ;
450 [label=<device_make &le; 35.0<br/>gini = 0.494<br/>samples = 9<br/>value = [5, 4]<br/>class = 0>, fillcolor="#fae6d7"] ;
449 -> 450 ;
451 [label=<experiment &le; 0.5<br/>gini = 0.469<br/>samples = 8<br/>value = [5, 3]<br/>class = 0>, fillcolor="#f5cdb0"] ;
450 -> 451 ;
452 [label=<device_make &le; 26.5<br/>gini = 0.49<br/>samples = 7<br/>value = [4, 3]<br/>class = 0>, fillcolor="#f8e0ce"] ;
451 -> 452 ;
453 [label=<device_make &le; 22.0<br/>gini = 0.375<br/>samples = 4<br/>value = [3, 1]<br/>class = 0>, fillcolor="#eeab7b"] ;
452 -> 453 ;
454 [label=<gini = 0.0<br/>samples = 1<br/>value = [1, 0]<br/>class = 0>, fillcolor="#e58139"] ;
453 -> 454 ;
455 [label=<device_make &le; 23.5<br/>gini = 0.444<br/>samples = 3<br/>value = [2, 1]<br/>class = 0>, fillcolor="#f2c09c"] ;
453 -> 455 ;
456 [label=<gini = 0.5<br/>samples = 2<br/>value = [1, 1]<br/>class = 0>, fillcolor="#ffffff"] ;
455 -> 456 ;
457 [label=<gini = 0.0<br/>samples = 1<br/>value = [1, 0]<br/>class = 0>, fillcolor="#e58139"] ;
455 -> 457 ;
458 [label=<device_make &le; 31.0<br/>gini = 0.444<br/>samples = 3<br/>value = [1, 2]<br/>class = 1>, fillcolor="#9ccef2"] ;
452 -> 458 ;
459 [label=<gini = 0.0<br/>samples = 1<br/>value = [0, 1]<br/>class = 1>, fillcolor="#399de5"] ;
458 -> 459 ;
460 [label=<gini = 0.5<br/>samples = 2<br/>value = [1, 1]<br/>class = 0>, fillcolor="#ffffff"] ;
458 -> 460 ;
461 [label=<gini = 0.0<br/>samples = 1<br/>value = [1, 0]<br/>class = 0>, fillcolor="#e58139"] ;
451 -> 461 ;
462 [label=<gini = 0.0<br/>samples = 1<br/>value = [0, 1]<br/>class = 1>, fillcolor="#399de5"] ;
450 -> 462 ;
463 [label=<gini = 0.0<br/>samples = 1<br/>value = [0, 1]<br/>class = 1>, fillcolor="#399de5"] ;
449 -> 463 ;
464 [label=<gini = 0.0<br/>samples = 1<br/>value = [1, 0]<br/>class = 0>, fillcolor="#e58139"] ;
446 -> 464 ;
465 [label=<browser &le; 5.5<br/>gini = 0.453<br/>samples = 26<br/>value = [17, 9]<br/>class = 0>, fillcolor="#f3c4a2"] ;
365 -> 465 ;
466 [label=<date &le; 2.5<br/>gini = 0.219<br/>samples = 8<br/>value = [7, 1]<br/>class = 0>, fillcolor="#e99355"] ;
465 -> 466 ;
467 [label=<browser &le; 3.0<br/>gini = 0.444<br/>samples = 3<br/>value = [2, 1]<br/>class = 0>, fillcolor="#f2c09c"] ;
466 -> 467 ;
468 [label=<gini = 0.0<br/>samples = 1<br/>value = [0, 1]<br/>class = 1>, fillcolor="#399de5"] ;
467 -> 468 ;
469 [label=<gini = 0.0<br/>samples = 2<br/>value = [2, 0]<br/>class = 0>, fillcolor="#e58139"] ;
467 -> 469 ;
470 [label=<gini = 0.0<br/>samples = 5<br/>value = [5, 0]<br/>class = 0>, fillcolor="#e58139"] ;
466 -> 470 ;
471 [label=<date &le; 5.5<br/>gini = 0.494<br/>samples = 18<br/>value = [10, 8]<br/>class = 0>, fillcolor="#fae6d7"] ;
465 -> 471 ;
472 [label=<date &le; 4.5<br/>gini = 0.5<br/>samples = 16<br/>value = [8, 8]<br/>class = 0>, fillcolor="#ffffff"] ;
471 -> 472 ;
473 [label=<device_make &le; 41.5<br/>gini = 0.49<br/>samples = 14<br/>value = [8, 6]<br/>class = 0>, fillcolor="#f8e0ce"] ;
472 -> 473 ;
474 [label=<gini = 0.0<br/>samples = 1<br/>value = [0, 1]<br/>class = 1>, fillcolor="#399de5"] ;
473 -> 474 ;
475 [label=<device_make &le; 42.5<br/>gini = 0.473<br/>samples = 13<br/>value = [8, 5]<br/>class = 0>, fillcolor="#f5d0b5"] ;
473 -> 475 ;
476 [label=<gini = 0.0<br/>samples = 2<br/>value = [2, 0]<br/>class = 0>, fillcolor="#e58139"] ;
475 -> 476 ;
477 [label=<date &le; 3.0<br/>gini = 0.496<br/>samples = 11<br/>value = [6, 5]<br/>class = 0>, fillcolor="#fbeade"] ;
475 -> 477 ;
478 [label=<date &le; 1.0<br/>gini = 0.5<br/>samples = 10<br/>value = [5, 5]<br/>class = 0>, fillcolor="#ffffff"] ;
477 -> 478 ;
479 [label=<device_make &le; 44.0<br/>gini = 0.494<br/>samples = 9<br/>value = [5, 4]<br/>class = 0>, fillcolor="#fae6d7"] ;
478 -> 479 ;
480 [label=<gini = 0.0<br/>samples = 2<br/>value = [2, 0]<br/>class = 0>, fillcolor="#e58139"] ;
479 -> 480 ;
481 [label=<device_make &le; 46.5<br/>gini = 0.49<br/>samples = 7<br/>value = [3, 4]<br/>class = 1>, fillcolor="#cee6f8"] ;
479 -> 481 ;
482 [label=<gini = 0.0<br/>samples = 2<br/>value = [0, 2]<br/>class = 1>, fillcolor="#399de5"] ;
481 -> 482 ;
483 [label=<gini = 0.48<br/>samples = 5<br/>value = [3, 2]<br/>class = 0>, fillcolor="#f6d5bd"] ;
481 -> 483 ;
484 [label=<gini = 0.0<br/>samples = 1<br/>value = [0, 1]<br/>class = 1>, fillcolor="#399de5"] ;
478 -> 484 ;
485 [label=<gini = 0.0<br/>samples = 1<br/>value = [1, 0]<br/>class = 0>, fillcolor="#e58139"] ;
477 -> 485 ;
486 [label=<gini = 0.0<br/>samples = 2<br/>value = [0, 2]<br/>class = 1>, fillcolor="#399de5"] ;
472 -> 486 ;
487 [label=<gini = 0.0<br/>samples = 2<br/>value = [2, 0]<br/>class = 0>, fillcolor="#e58139"] ;
471 -> 487 ;
488 [label=<date &le; 4.5<br/>gini = 0.432<br/>samples = 19<br/>value = [13, 6]<br/>class = 0>, fillcolor="#f1bb94"] ;
364 -> 488 ;
489 [label=<date &le; 3.0<br/>gini = 0.5<br/>samples = 6<br/>value = [3, 3]<br/>class = 0>, fillcolor="#ffffff"] ;
488 -> 489 ;
490 [label=<date &le; 1.5<br/>gini = 0.48<br/>samples = 5<br/>value = [3, 2]<br/>class = 0>, fillcolor="#f6d5bd"] ;
489 -> 490 ;
491 [label=<experiment &le; 0.5<br/>gini = 0.5<br/>samples = 4<br/>value = [2, 2]<br/>class = 0>, fillcolor="#ffffff"] ;
490 -> 491 ;
492 [label=<gini = 0.5<br/>samples = 2<br/>value = [1, 1]<br/>class = 0>, fillcolor="#ffffff"] ;
491 -> 492 ;
493 [label=<gini = 0.5<br/>samples = 2<br/>value = [1, 1]<br/>class = 0>, fillcolor="#ffffff"] ;
491 -> 493 ;
494 [label=<gini = 0.0<br/>samples = 1<br/>value = [1, 0]<br/>class = 0>, fillcolor="#e58139"] ;
490 -> 494 ;
495 [label=<gini = 0.0<br/>samples = 1<br/>value = [0, 1]<br/>class = 1>, fillcolor="#399de5"] ;
489 -> 495 ;
496 [label=<browser &le; 4.5<br/>gini = 0.355<br/>samples = 13<br/>value = [10, 3]<br/>class = 0>, fillcolor="#eda774"] ;
488 -> 496 ;
497 [label=<date &le; 5.5<br/>gini = 0.298<br/>samples = 11<br/>value = [9, 2]<br/>class = 0>, fillcolor="#eb9d65"] ;
496 -> 497 ;
498 [label=<experiment &le; 0.5<br/>gini = 0.198<br/>samples = 9<br/>value = [8, 1]<br/>class = 0>, fillcolor="#e89152"] ;
497 -> 498 ;
499 [label=<gini = 0.375<br/>samples = 4<br/>value = [3, 1]<br/>class = 0>, fillcolor="#eeab7b"] ;
498 -> 499 ;
500 [label=<gini = 0.0<br/>samples = 5<br/>value = [5, 0]<br/>class = 0>, fillcolor="#e58139"] ;
498 -> 500 ;
501 [label=<experiment &le; 0.5<br/>gini = 0.5<br/>samples = 2<br/>value = [1, 1]<br/>class = 0>, fillcolor="#ffffff"] ;
497 -> 501 ;
502 [label=<gini = 0.0<br/>samples = 1<br/>value = [1, 0]<br/>class = 0>, fillcolor="#e58139"] ;
501 -> 502 ;
503 [label=<gini = 0.0<br/>samples = 1<br/>value = [0, 1]<br/>class = 1>, fillcolor="#399de5"] ;
501 -> 503 ;
504 [label=<experiment &le; 0.5<br/>gini = 0.5<br/>samples = 2<br/>value = [1, 1]<br/>class = 0>, fillcolor="#ffffff"] ;
496 -> 504 ;
505 [label=<gini = 0.0<br/>samples = 1<br/>value = [0, 1]<br/>class = 1>, fillcolor="#399de5"] ;
504 -> 505 ;
506 [label=<gini = 0.0<br/>samples = 1<br/>value = [1, 0]<br/>class = 0>, fillcolor="#e58139"] ;
504 -> 506 ;
507 [label=<gini = 0.0<br/>samples = 3<br/>value = [0, 3]<br/>class = 1>, fillcolor="#399de5"] ;
363 -> 507 ;
508 [label=<gini = 0.0<br/>samples = 4<br/>value = [4, 0]<br/>class = 0>, fillcolor="#e58139"] ;
362 -> 508 ;
509 [label=<device_make &le; 66.5<br/>gini = 0.5<br/>samples = 41<br/>value = [20, 21]<br/>class = 1>, fillcolor="#f6fafe"] ;
361 -> 509 ;
510 [label=<experiment &le; 0.5<br/>gini = 0.488<br/>samples = 26<br/>value = [11, 15]<br/>class = 1>, fillcolor="#cae5f8"] ;
509 -> 510 ;
511 [label=<device_make &le; 64.5<br/>gini = 0.415<br/>samples = 17<br/>value = [5, 12]<br/>class = 1>, fillcolor="#8bc6f0"] ;
510 -> 511 ;
512 [label=<browser &le; 5.5<br/>gini = 0.48<br/>samples = 10<br/>value = [4, 6]<br/>class = 1>, fillcolor="#bddef6"] ;
511 -> 512 ;
513 [label=<browser &le; 3.0<br/>gini = 0.32<br/>samples = 5<br/>value = [1, 4]<br/>class = 1>, fillcolor="#6ab6ec"] ;
512 -> 513 ;
514 [label=<device_make &le; 63.0<br/>gini = 0.444<br/>samples = 3<br/>value = [1, 2]<br/>class = 1>, fillcolor="#9ccef2"] ;
513 -> 514 ;
515 [label=<gini = 0.0<br/>samples = 1<br/>value = [1, 0]<br/>class = 0>, fillcolor="#e58139"] ;
514 -> 515 ;
516 [label=<gini = 0.0<br/>samples = 2<br/>value = [0, 2]<br/>class = 1>, fillcolor="#399de5"] ;
514 -> 516 ;
517 [label=<gini = 0.0<br/>samples = 2<br/>value = [0, 2]<br/>class = 1>, fillcolor="#399de5"] ;
513 -> 517 ;
518 [label=<device_make &le; 58.0<br/>gini = 0.48<br/>samples = 5<br/>value = [3, 2]<br/>class = 0>, fillcolor="#f6d5bd"] ;
512 -> 518 ;
519 [label=<gini = 0.5<br/>samples = 2<br/>value = [1, 1]<br/>class = 0>, fillcolor="#ffffff"] ;
518 -> 519 ;
520 [label=<gini = 0.444<br/>samples = 3<br/>value = [2, 1]<br/>class = 0>, fillcolor="#f2c09c"] ;
518 -> 520 ;
521 [label=<browser &le; 5.5<br/>gini = 0.245<br/>samples = 7<br/>value = [1, 6]<br/>class = 1>, fillcolor="#5aade9"] ;
511 -> 521 ;
522 [label=<browser &le; 3.0<br/>gini = 0.375<br/>samples = 4<br/>value = [1, 3]<br/>class = 1>, fillcolor="#7bbeee"] ;
521 -> 522 ;
523 [label=<gini = 0.0<br/>samples = 1<br/>value = [0, 1]<br/>class = 1>, fillcolor="#399de5"] ;
522 -> 523 ;
524 [label=<gini = 0.444<br/>samples = 3<br/>value = [1, 2]<br/>class = 1>, fillcolor="#9ccef2"] ;
522 -> 524 ;
525 [label=<gini = 0.0<br/>samples = 3<br/>value = [0, 3]<br/>class = 1>, fillcolor="#399de5"] ;
521 -> 525 ;
526 [label=<date &le; 1.5<br/>gini = 0.444<br/>samples = 9<br/>value = [6, 3]<br/>class = 0>, fillcolor="#f2c09c"] ;
510 -> 526 ;
527 [label=<gini = 0.0<br/>samples = 4<br/>value = [4, 0]<br/>class = 0>, fillcolor="#e58139"] ;
526 -> 527 ;
528 [label=<date &le; 5.5<br/>gini = 0.48<br/>samples = 5<br/>value = [2, 3]<br/>class = 1>, fillcolor="#bddef6"] ;
526 -> 528 ;
529 [label=<device_make &le; 64.0<br/>gini = 0.375<br/>samples = 4<br/>value = [1, 3]<br/>class = 1>, fillcolor="#7bbeee"] ;
528 -> 529 ;
530 [label=<gini = 0.0<br/>samples = 1<br/>value = [0, 1]<br/>class = 1>, fillcolor="#399de5"] ;
529 -> 530 ;
531 [label=<date &le; 3.5<br/>gini = 0.444<br/>samples = 3<br/>value = [1, 2]<br/>class = 1>, fillcolor="#9ccef2"] ;
529 -> 531 ;
532 [label=<gini = 0.0<br/>samples = 1<br/>value = [0, 1]<br/>class = 1>, fillcolor="#399de5"] ;
531 -> 532 ;
533 [label=<gini = 0.5<br/>samples = 2<br/>value = [1, 1]<br/>class = 0>, fillcolor="#ffffff"] ;
531 -> 533 ;
534 [label=<gini = 0.0<br/>samples = 1<br/>value = [1, 0]<br/>class = 0>, fillcolor="#e58139"] ;
528 -> 534 ;
535 [label=<hour &le; 18.0<br/>gini = 0.48<br/>samples = 15<br/>value = [9, 6]<br/>class = 0>, fillcolor="#f6d5bd"] ;
509 -> 535 ;
536 [label=<hour &le; 14.5<br/>gini = 0.426<br/>samples = 13<br/>value = [9, 4]<br/>class = 0>, fillcolor="#f1b991"] ;
535 -> 536 ;
537 [label=<browser &le; 4.5<br/>gini = 0.5<br/>samples = 4<br/>value = [2, 2]<br/>class = 0>, fillcolor="#ffffff"] ;
536 -> 537 ;
538 [label=<gini = 0.0<br/>samples = 2<br/>value = [0, 2]<br/>class = 1>, fillcolor="#399de5"] ;
537 -> 538 ;
539 [label=<gini = 0.0<br/>samples = 2<br/>value = [2, 0]<br/>class = 0>, fillcolor="#e58139"] ;
537 -> 539 ;
540 [label=<browser &le; 5.5<br/>gini = 0.346<br/>samples = 9<br/>value = [7, 2]<br/>class = 0>, fillcolor="#eca572"] ;
536 -> 540 ;
541 [label=<gini = 0.0<br/>samples = 7<br/>value = [7, 0]<br/>class = 0>, fillcolor="#e58139"] ;
540 -> 541 ;
542 [label=<gini = 0.0<br/>samples = 2<br/>value = [0, 2]<br/>class = 1>, fillcolor="#399de5"] ;
540 -> 542 ;
543 [label=<gini = 0.0<br/>samples = 2<br/>value = [0, 2]<br/>class = 1>, fillcolor="#399de5"] ;
535 -> 543 ;
544 [label=<browser &le; 3.0<br/>gini = 0.491<br/>samples = 23<br/>value = [10, 13]<br/>class = 1>, fillcolor="#d1e8f9"] ;
360 -> 544 ;
545 [label=<experiment &le; 0.5<br/>gini = 0.465<br/>samples = 19<br/>value = [7, 12]<br/>class = 1>, fillcolor="#acd6f4"] ;
544 -> 545 ;
546 [label=<date &le; 5.5<br/>gini = 0.49<br/>samples = 7<br/>value = [4, 3]<br/>class = 0>, fillcolor="#f8e0ce"] ;
545 -> 546 ;
547 [label=<date &le; 3.0<br/>gini = 0.444<br/>samples = 6<br/>value = [4, 2]<br/>class = 0>, fillcolor="#f2c09c"] ;
546 -> 547 ;
548 [label=<gini = 0.5<br/>samples = 2<br/>value = [1, 1]<br/>class = 0>, fillcolor="#ffffff"] ;
547 -> 548 ;
549 [label=<gini = 0.375<br/>samples = 4<br/>value = [3, 1]<br/>class = 0>, fillcolor="#eeab7b"] ;
547 -> 549 ;
550 [label=<gini = 0.0<br/>samples = 1<br/>value = [0, 1]<br/>class = 1>, fillcolor="#399de5"] ;
546 -> 550 ;
551 [label=<date &le; 5.5<br/>gini = 0.375<br/>samples = 12<br/>value = [3, 9]<br/>class = 1>, fillcolor="#7bbeee"] ;
545 -> 551 ;
552 [label=<date &le; 4.5<br/>gini = 0.298<br/>samples = 11<br/>value = [2, 9]<br/>class = 1>, fillcolor="#65b3eb"] ;
551 -> 552 ;
553 [label=<gini = 0.0<br/>samples = 3<br/>value = [0, 3]<br/>class = 1>, fillcolor="#399de5"] ;
552 -> 553 ;
554 [label=<browser &le; 1.5<br/>gini = 0.375<br/>samples = 8<br/>value = [2, 6]<br/>class = 1>, fillcolor="#7bbeee"] ;
552 -> 554 ;
555 [label=<gini = 0.444<br/>samples = 6<br/>value = [2, 4]<br/>class = 1>, fillcolor="#9ccef2"] ;
554 -> 555 ;
556 [label=<gini = 0.0<br/>samples = 2<br/>value = [0, 2]<br/>class = 1>, fillcolor="#399de5"] ;
554 -> 556 ;
557 [label=<gini = 0.0<br/>samples = 1<br/>value = [1, 0]<br/>class = 0>, fillcolor="#e58139"] ;
551 -> 557 ;
558 [label=<device_make &le; 59.0<br/>gini = 0.375<br/>samples = 4<br/>value = [3, 1]<br/>class = 0>, fillcolor="#eeab7b"] ;
544 -> 558 ;
559 [label=<gini = 0.0<br/>samples = 2<br/>value = [2, 0]<br/>class = 0>, fillcolor="#e58139"] ;
558 -> 559 ;
560 [label=<experiment &le; 0.5<br/>gini = 0.5<br/>samples = 2<br/>value = [1, 1]<br/>class = 0>, fillcolor="#ffffff"] ;
558 -> 560 ;
561 [label=<gini = 0.0<br/>samples = 1<br/>value = [0, 1]<br/>class = 1>, fillcolor="#399de5"] ;
560 -> 561 ;
562 [label=<gini = 0.0<br/>samples = 1<br/>value = [1, 0]<br/>class = 0>, fillcolor="#e58139"] ;
560 -> 562 ;
563 [label=<browser &le; 1.5<br/>gini = 0.408<br/>samples = 14<br/>value = [4, 10]<br/>class = 1>, fillcolor="#88c4ef"] ;
321 -> 563 ;
564 [label=<experiment &le; 0.5<br/>gini = 0.49<br/>samples = 7<br/>value = [3, 4]<br/>class = 1>, fillcolor="#cee6f8"] ;
563 -> 564 ;
565 [label=<hour &le; 15.5<br/>gini = 0.444<br/>samples = 3<br/>value = [2, 1]<br/>class = 0>, fillcolor="#f2c09c"] ;
564 -> 565 ;
566 [label=<gini = 0.0<br/>samples = 1<br/>value = [1, 0]<br/>class = 0>, fillcolor="#e58139"] ;
565 -> 566 ;
567 [label=<gini = 0.5<br/>samples = 2<br/>value = [1, 1]<br/>class = 0>, fillcolor="#ffffff"] ;
565 -> 567 ;
568 [label=<hour &le; 16.0<br/>gini = 0.375<br/>samples = 4<br/>value = [1, 3]<br/>class = 1>, fillcolor="#7bbeee"] ;
564 -> 568 ;
569 [label=<gini = 0.444<br/>samples = 3<br/>value = [1, 2]<br/>class = 1>, fillcolor="#9ccef2"] ;
568 -> 569 ;
570 [label=<gini = 0.0<br/>samples = 1<br/>value = [0, 1]<br/>class = 1>, fillcolor="#399de5"] ;
568 -> 570 ;
571 [label=<device_make &le; 63.5<br/>gini = 0.245<br/>samples = 7<br/>value = [1, 6]<br/>class = 1>, fillcolor="#5aade9"] ;
563 -> 571 ;
572 [label=<gini = 0.0<br/>samples = 5<br/>value = [0, 5]<br/>class = 1>, fillcolor="#399de5"] ;
571 -> 572 ;
573 [label=<browser &le; 5.5<br/>gini = 0.5<br/>samples = 2<br/>value = [1, 1]<br/>class = 0>, fillcolor="#ffffff"] ;
571 -> 573 ;
574 [label=<gini = 0.0<br/>samples = 1<br/>value = [0, 1]<br/>class = 1>, fillcolor="#399de5"] ;
573 -> 574 ;
575 [label=<gini = 0.0<br/>samples = 1<br/>value = [1, 0]<br/>class = 0>, fillcolor="#e58139"] ;
573 -> 575 ;
576 [label=<browser &le; 3.0<br/>gini = 0.483<br/>samples = 76<br/>value = [31, 45]<br/>class = 1>, fillcolor="#c1e1f7"] ;
2 -> 576 ;
577 [label=<device_make &le; 72.5<br/>gini = 0.355<br/>samples = 26<br/>value = [6, 20]<br/>class = 1>, fillcolor="#74baed"] ;
576 -> 577 ;
578 [label=<gini = 0.0<br/>samples = 11<br/>value = [0, 11]<br/>class = 1>, fillcolor="#399de5"] ;
577 -> 578 ;
579 [label=<date &le; 2.5<br/>gini = 0.48<br/>samples = 15<br/>value = [6, 9]<br/>class = 1>, fillcolor="#bddef6"] ;
577 -> 579 ;
580 [label=<device_make &le; 81.0<br/>gini = 0.346<br/>samples = 9<br/>value = [2, 7]<br/>class = 1>, fillcolor="#72b9ec"] ;
579 -> 580 ;
581 [label=<hour &le; 7.0<br/>gini = 0.5<br/>samples = 4<br/>value = [2, 2]<br/>class = 0>, fillcolor="#ffffff"] ;
580 -> 581 ;
582 [label=<gini = 0.0<br/>samples = 2<br/>value = [0, 2]<br/>class = 1>, fillcolor="#399de5"] ;
581 -> 582 ;
583 [label=<gini = 0.0<br/>samples = 2<br/>value = [2, 0]<br/>class = 0>, fillcolor="#e58139"] ;
581 -> 583 ;
584 [label=<gini = 0.0<br/>samples = 5<br/>value = [0, 5]<br/>class = 1>, fillcolor="#399de5"] ;
580 -> 584 ;
585 [label=<date &le; 6.5<br/>gini = 0.444<br/>samples = 6<br/>value = [4, 2]<br/>class = 0>, fillcolor="#f2c09c"] ;
579 -> 585 ;
586 [label=<hour &le; 15.0<br/>gini = 0.32<br/>samples = 5<br/>value = [4, 1]<br/>class = 0>, fillcolor="#eca06a"] ;
585 -> 586 ;
587 [label=<gini = 0.0<br/>samples = 4<br/>value = [4, 0]<br/>class = 0>, fillcolor="#e58139"] ;
586 -> 587 ;
588 [label=<gini = 0.0<br/>samples = 1<br/>value = [0, 1]<br/>class = 1>, fillcolor="#399de5"] ;
586 -> 588 ;
589 [label=<gini = 0.0<br/>samples = 1<br/>value = [0, 1]<br/>class = 1>, fillcolor="#399de5"] ;
585 -> 589 ;
590 [label=<browser &le; 5.5<br/>gini = 0.5<br/>samples = 50<br/>value = [25, 25]<br/>class = 0>, fillcolor="#ffffff"] ;
576 -> 590 ;
591 [label=<date &le; 2.5<br/>gini = 0.43<br/>samples = 16<br/>value = [11, 5]<br/>class = 0>, fillcolor="#f1ba93"] ;
590 -> 591 ;
592 [label=<date &le; 0.5<br/>gini = 0.5<br/>samples = 8<br/>value = [4, 4]<br/>class = 0>, fillcolor="#ffffff"] ;
591 -> 592 ;
593 [label=<device_make &le; 70.5<br/>gini = 0.444<br/>samples = 6<br/>value = [4, 2]<br/>class = 0>, fillcolor="#f2c09c"] ;
592 -> 593 ;
594 [label=<gini = 0.0<br/>samples = 1<br/>value = [1, 0]<br/>class = 0>, fillcolor="#e58139"] ;
593 -> 594 ;
595 [label=<device_make &le; 72.5<br/>gini = 0.48<br/>samples = 5<br/>value = [3, 2]<br/>class = 0>, fillcolor="#f6d5bd"] ;
593 -> 595 ;
596 [label=<gini = 0.5<br/>samples = 4<br/>value = [2, 2]<br/>class = 0>, fillcolor="#ffffff"] ;
595 -> 596 ;
597 [label=<gini = 0.0<br/>samples = 1<br/>value = [1, 0]<br/>class = 0>, fillcolor="#e58139"] ;
595 -> 597 ;
598 [label=<gini = 0.0<br/>samples = 2<br/>value = [0, 2]<br/>class = 1>, fillcolor="#399de5"] ;
592 -> 598 ;
599 [label=<device_make &le; 72.5<br/>gini = 0.219<br/>samples = 8<br/>value = [7, 1]<br/>class = 0>, fillcolor="#e99355"] ;
591 -> 599 ;
600 [label=<date &le; 5.5<br/>gini = 0.5<br/>samples = 2<br/>value = [1, 1]<br/>class = 0>, fillcolor="#ffffff"] ;
599 -> 600 ;
601 [label=<gini = 0.0<br/>samples = 1<br/>value = [0, 1]<br/>class = 1>, fillcolor="#399de5"] ;
600 -> 601 ;
602 [label=<gini = 0.0<br/>samples = 1<br/>value = [1, 0]<br/>class = 0>, fillcolor="#e58139"] ;
600 -> 602 ;
603 [label=<gini = 0.0<br/>samples = 6<br/>value = [6, 0]<br/>class = 0>, fillcolor="#e58139"] ;
599 -> 603 ;
604 [label=<date &le; 5.5<br/>gini = 0.484<br/>samples = 34<br/>value = [14, 20]<br/>class = 1>, fillcolor="#c4e2f7"] ;
590 -> 604 ;
605 [label=<date &le; 2.5<br/>gini = 0.497<br/>samples = 28<br/>value = [13, 15]<br/>class = 1>, fillcolor="#e5f2fc"] ;
604 -> 605 ;
606 [label=<device_make &le; 72.5<br/>gini = 0.455<br/>samples = 20<br/>value = [7, 13]<br/>class = 1>, fillcolor="#a4d2f3"] ;
605 -> 606 ;
607 [label=<device_make &le; 71.5<br/>gini = 0.444<br/>samples = 6<br/>value = [4, 2]<br/>class = 0>, fillcolor="#f2c09c"] ;
606 -> 607 ;
608 [label=<date &le; 1.0<br/>gini = 0.444<br/>samples = 3<br/>value = [1, 2]<br/>class = 1>, fillcolor="#9ccef2"] ;
607 -> 608 ;
609 [label=<gini = 0.5<br/>samples = 2<br/>value = [1, 1]<br/>class = 0>, fillcolor="#ffffff"] ;
608 -> 609 ;
610 [label=<gini = 0.0<br/>samples = 1<br/>value = [0, 1]<br/>class = 1>, fillcolor="#399de5"] ;
608 -> 610 ;
611 [label=<gini = 0.0<br/>samples = 3<br/>value = [3, 0]<br/>class = 0>, fillcolor="#e58139"] ;
607 -> 611 ;
612 [label=<hour &le; 2.0<br/>gini = 0.337<br/>samples = 14<br/>value = [3, 11]<br/>class = 1>, fillcolor="#6fb8ec"] ;
606 -> 612 ;
613 [label=<gini = 0.0<br/>samples = 1<br/>value = [1, 0]<br/>class = 0>, fillcolor="#e58139"] ;
612 -> 613 ;
614 [label=<device_make &le; 83.5<br/>gini = 0.26<br/>samples = 13<br/>value = [2, 11]<br/>class = 1>, fillcolor="#5dafea"] ;
612 -> 614 ;
615 [label=<gini = 0.0<br/>samples = 7<br/>value = [0, 7]<br/>class = 1>, fillcolor="#399de5"] ;
614 -> 615 ;
616 [label=<experiment &le; 0.5<br/>gini = 0.444<br/>samples = 6<br/>value = [2, 4]<br/>class = 1>, fillcolor="#9ccef2"] ;
614 -> 616 ;
617 [label=<hour &le; 6.0<br/>gini = 0.444<br/>samples = 3<br/>value = [2, 1]<br/>class = 0>, fillcolor="#f2c09c"] ;
616 -> 617 ;
618 [label=<gini = 0.0<br/>samples = 1<br/>value = [0, 1]<br/>class = 1>, fillcolor="#399de5"] ;
617 -> 618 ;
619 [label=<gini = 0.0<br/>samples = 2<br/>value = [2, 0]<br/>class = 0>, fillcolor="#e58139"] ;
617 -> 619 ;
620 [label=<gini = 0.0<br/>samples = 3<br/>value = [0, 3]<br/>class = 1>, fillcolor="#399de5"] ;
616 -> 620 ;
621 [label=<hour &le; 7.0<br/>gini = 0.375<br/>samples = 8<br/>value = [6, 2]<br/>class = 0>, fillcolor="#eeab7b"] ;
605 -> 621 ;
622 [label=<hour &le; 3.5<br/>gini = 0.48<br/>samples = 5<br/>value = [3, 2]<br/>class = 0>, fillcolor="#f6d5bd"] ;
621 -> 622 ;
623 [label=<gini = 0.0<br/>samples = 2<br/>value = [2, 0]<br/>class = 0>, fillcolor="#e58139"] ;
622 -> 623 ;
624 [label=<date &le; 4.0<br/>gini = 0.444<br/>samples = 3<br/>value = [1, 2]<br/>class = 1>, fillcolor="#9ccef2"] ;
622 -> 624 ;
625 [label=<hour &le; 5.5<br/>gini = 0.5<br/>samples = 2<br/>value = [1, 1]<br/>class = 0>, fillcolor="#ffffff"] ;
624 -> 625 ;
626 [label=<gini = 0.0<br/>samples = 1<br/>value = [1, 0]<br/>class = 0>, fillcolor="#e58139"] ;
625 -> 626 ;
627 [label=<gini = 0.0<br/>samples = 1<br/>value = [0, 1]<br/>class = 1>, fillcolor="#399de5"] ;
625 -> 627 ;
628 [label=<gini = 0.0<br/>samples = 1<br/>value = [0, 1]<br/>class = 1>, fillcolor="#399de5"] ;
624 -> 628 ;
629 [label=<gini = 0.0<br/>samples = 3<br/>value = [3, 0]<br/>class = 0>, fillcolor="#e58139"] ;
621 -> 629 ;
630 [label=<device_make &le; 70.0<br/>gini = 0.278<br/>samples = 6<br/>value = [1, 5]<br/>class = 1>, fillcolor="#61b1ea"] ;
604 -> 630 ;
631 [label=<gini = 0.0<br/>samples = 1<br/>value = [1, 0]<br/>class = 0>, fillcolor="#e58139"] ;
630 -> 631 ;
632 [label=<gini = 0.0<br/>samples = 5<br/>value = [0, 5]<br/>class = 1>, fillcolor="#399de5"] ;
630 -> 632 ;
633 [label=<hour &le; 13.5<br/>gini = 0.414<br/>samples = 41<br/>value = [29, 12]<br/>class = 0>, fillcolor="#f0b58b"] ;
1 -> 633 ;
634 [label=<hour &le; 12.5<br/>gini = 0.488<br/>samples = 26<br/>value = [15, 11]<br/>class = 0>, fillcolor="#f8ddca"] ;
633 -> 634 ;
635 [label=<date &le; 5.5<br/>gini = 0.469<br/>samples = 24<br/>value = [15, 9]<br/>class = 0>, fillcolor="#f5cdb0"] ;
634 -> 635 ;
636 [label=<browser &le; 3.5<br/>gini = 0.401<br/>samples = 18<br/>value = [13, 5]<br/>class = 0>, fillcolor="#efb185"] ;
635 -> 636 ;
637 [label=<device_make &le; 95.5<br/>gini = 0.5<br/>samples = 6<br/>value = [3, 3]<br/>class = 0>, fillcolor="#ffffff"] ;
636 -> 637 ;
638 [label=<gini = 0.0<br/>samples = 2<br/>value = [2, 0]<br/>class = 0>, fillcolor="#e58139"] ;
637 -> 638 ;
639 [label=<hour &le; 0.5<br/>gini = 0.375<br/>samples = 4<br/>value = [1, 3]<br/>class = 1>, fillcolor="#7bbeee"] ;
637 -> 639 ;
640 [label=<gini = 0.0<br/>samples = 1<br/>value = [1, 0]<br/>class = 0>, fillcolor="#e58139"] ;
639 -> 640 ;
641 [label=<gini = 0.0<br/>samples = 3<br/>value = [0, 3]<br/>class = 1>, fillcolor="#399de5"] ;
639 -> 641 ;
642 [label=<device_make &le; 93.5<br/>gini = 0.278<br/>samples = 12<br/>value = [10, 2]<br/>class = 0>, fillcolor="#ea9a61"] ;
636 -> 642 ;
643 [label=<date &le; 4.0<br/>gini = 0.5<br/>samples = 2<br/>value = [1, 1]<br/>class = 0>, fillcolor="#ffffff"] ;
642 -> 643 ;
644 [label=<gini = 0.0<br/>samples = 1<br/>value = [0, 1]<br/>class = 1>, fillcolor="#399de5"] ;
643 -> 644 ;
645 [label=<gini = 0.0<br/>samples = 1<br/>value = [1, 0]<br/>class = 0>, fillcolor="#e58139"] ;
643 -> 645 ;
646 [label=<hour &le; 4.0<br/>gini = 0.18<br/>samples = 10<br/>value = [9, 1]<br/>class = 0>, fillcolor="#e88f4f"] ;
642 -> 646 ;
647 [label=<date &le; 2.5<br/>gini = 0.444<br/>samples = 3<br/>value = [2, 1]<br/>class = 0>, fillcolor="#f2c09c"] ;
646 -> 647 ;
648 [label=<gini = 0.0<br/>samples = 1<br/>value = [0, 1]<br/>class = 1>, fillcolor="#399de5"] ;
647 -> 648 ;
649 [label=<gini = 0.0<br/>samples = 2<br/>value = [2, 0]<br/>class = 0>, fillcolor="#e58139"] ;
647 -> 649 ;
650 [label=<gini = 0.0<br/>samples = 7<br/>value = [7, 0]<br/>class = 0>, fillcolor="#e58139"] ;
646 -> 650 ;
651 [label=<hour &le; 3.5<br/>gini = 0.444<br/>samples = 6<br/>value = [2, 4]<br/>class = 1>, fillcolor="#9ccef2"] ;
635 -> 651 ;
652 [label=<gini = 0.0<br/>samples = 2<br/>value = [2, 0]<br/>class = 0>, fillcolor="#e58139"] ;
651 -> 652 ;
653 [label=<gini = 0.0<br/>samples = 4<br/>value = [0, 4]<br/>class = 1>, fillcolor="#399de5"] ;
651 -> 653 ;
654 [label=<gini = 0.0<br/>samples = 2<br/>value = [0, 2]<br/>class = 1>, fillcolor="#399de5"] ;
634 -> 654 ;
655 [label=<device_make &le; 96.0<br/>gini = 0.124<br/>samples = 15<br/>value = [14, 1]<br/>class = 0>, fillcolor="#e78a47"] ;
633 -> 655 ;
656 [label=<date &le; 2.0<br/>gini = 0.375<br/>samples = 4<br/>value = [3, 1]<br/>class = 0>, fillcolor="#eeab7b"] ;
655 -> 656 ;
657 [label=<gini = 0.0<br/>samples = 1<br/>value = [0, 1]<br/>class = 1>, fillcolor="#399de5"] ;
656 -> 657 ;
658 [label=<gini = 0.0<br/>samples = 3<br/>value = [3, 0]<br/>class = 0>, fillcolor="#e58139"] ;
656 -> 658 ;
659 [label=<gini = 0.0<br/>samples = 11<br/>value = [11, 0]<br/>class = 0>, fillcolor="#e58139"] ;
655 -> 659 ;
660 [label=<date &le; 5.5<br/>gini = 0.48<br/>samples = 40<br/>value = [16, 24]<br/>class = 1>, fillcolor="#bddef6"] ;
0 -> 660 [labeldistance=2.5, labelangle=-45, headlabel="False"] ;
661 [label=<hour &le; 22.5<br/>gini = 0.498<br/>samples = 30<br/>value = [14, 16]<br/>class = 1>, fillcolor="#e6f3fc"] ;
660 -> 661 ;
662 [label=<device_make &le; 67.0<br/>gini = 0.5<br/>samples = 28<br/>value = [14, 14]<br/>class = 0>, fillcolor="#ffffff"] ;
661 -> 662 ;
663 [label=<experiment &le; 0.5<br/>gini = 0.497<br/>samples = 26<br/>value = [12, 14]<br/>class = 1>, fillcolor="#e3f1fb"] ;
662 -> 663 ;
664 [label=<date &le; 4.5<br/>gini = 0.444<br/>samples = 12<br/>value = [4, 8]<br/>class = 1>, fillcolor="#9ccef2"] ;
663 -> 664 ;
665 [label=<device_make &le; 33.5<br/>gini = 0.48<br/>samples = 5<br/>value = [3, 2]<br/>class = 0>, fillcolor="#f6d5bd"] ;
664 -> 665 ;
666 [label=<date &le; 1.5<br/>gini = 0.5<br/>samples = 4<br/>value = [2, 2]<br/>class = 0>, fillcolor="#ffffff"] ;
665 -> 666 ;
667 [label=<gini = 0.0<br/>samples = 1<br/>value = [0, 1]<br/>class = 1>, fillcolor="#399de5"] ;
666 -> 667 ;
668 [label=<date &le; 3.0<br/>gini = 0.444<br/>samples = 3<br/>value = [2, 1]<br/>class = 0>, fillcolor="#f2c09c"] ;
666 -> 668 ;
669 [label=<gini = 0.5<br/>samples = 2<br/>value = [1, 1]<br/>class = 0>, fillcolor="#ffffff"] ;
668 -> 669 ;
670 [label=<gini = 0.0<br/>samples = 1<br/>value = [1, 0]<br/>class = 0>, fillcolor="#e58139"] ;
668 -> 670 ;
671 [label=<gini = 0.0<br/>samples = 1<br/>value = [1, 0]<br/>class = 0>, fillcolor="#e58139"] ;
665 -> 671 ;
672 [label=<hour &le; 21.5<br/>gini = 0.245<br/>samples = 7<br/>value = [1, 6]<br/>class = 1>, fillcolor="#5aade9"] ;
664 -> 672 ;
673 [label=<gini = 0.0<br/>samples = 4<br/>value = [0, 4]<br/>class = 1>, fillcolor="#399de5"] ;
672 -> 673 ;
674 [label=<device_make &le; 39.5<br/>gini = 0.444<br/>samples = 3<br/>value = [1, 2]<br/>class = 1>, fillcolor="#9ccef2"] ;
672 -> 674 ;
675 [label=<gini = 0.5<br/>samples = 2<br/>value = [1, 1]<br/>class = 0>, fillcolor="#ffffff"] ;
674 -> 675 ;
676 [label=<gini = 0.0<br/>samples = 1<br/>value = [0, 1]<br/>class = 1>, fillcolor="#399de5"] ;
674 -> 676 ;
677 [label=<date &le; 4.5<br/>gini = 0.49<br/>samples = 14<br/>value = [8, 6]<br/>class = 0>, fillcolor="#f8e0ce"] ;
663 -> 677 ;
678 [label=<device_make &le; 46.5<br/>gini = 0.444<br/>samples = 6<br/>value = [2, 4]<br/>class = 1>, fillcolor="#9ccef2"] ;
677 -> 678 ;
679 [label=<browser &le; 1.5<br/>gini = 0.32<br/>samples = 5<br/>value = [1, 4]<br/>class = 1>, fillcolor="#6ab6ec"] ;
678 -> 679 ;
680 [label=<date &le; 3.0<br/>gini = 0.444<br/>samples = 3<br/>value = [1, 2]<br/>class = 1>, fillcolor="#9ccef2"] ;
679 -> 680 ;
681 [label=<gini = 0.0<br/>samples = 1<br/>value = [0, 1]<br/>class = 1>, fillcolor="#399de5"] ;
680 -> 681 ;
682 [label=<hour &le; 21.5<br/>gini = 0.5<br/>samples = 2<br/>value = [1, 1]<br/>class = 0>, fillcolor="#ffffff"] ;
680 -> 682 ;
683 [label=<gini = 0.0<br/>samples = 1<br/>value = [1, 0]<br/>class = 0>, fillcolor="#e58139"] ;
682 -> 683 ;
684 [label=<gini = 0.0<br/>samples = 1<br/>value = [0, 1]<br/>class = 1>, fillcolor="#399de5"] ;
682 -> 684 ;
685 [label=<gini = 0.0<br/>samples = 2<br/>value = [0, 2]<br/>class = 1>, fillcolor="#399de5"] ;
679 -> 685 ;
686 [label=<gini = 0.0<br/>samples = 1<br/>value = [1, 0]<br/>class = 0>, fillcolor="#e58139"] ;
678 -> 686 ;
687 [label=<device_make &le; 39.5<br/>gini = 0.375<br/>samples = 8<br/>value = [6, 2]<br/>class = 0>, fillcolor="#eeab7b"] ;
677 -> 687 ;
688 [label=<hour &le; 21.5<br/>gini = 0.278<br/>samples = 6<br/>value = [5, 1]<br/>class = 0>, fillcolor="#ea9a61"] ;
687 -> 688 ;
689 [label=<gini = 0.0<br/>samples = 2<br/>value = [2, 0]<br/>class = 0>, fillcolor="#e58139"] ;
688 -> 689 ;
690 [label=<gini = 0.375<br/>samples = 4<br/>value = [3, 1]<br/>class = 0>, fillcolor="#eeab7b"] ;
688 -> 690 ;
691 [label=<browser &le; 3.0<br/>gini = 0.5<br/>samples = 2<br/>value = [1, 1]<br/>class = 0>, fillcolor="#ffffff"] ;
687 -> 691 ;
692 [label=<gini = 0.0<br/>samples = 1<br/>value = [0, 1]<br/>class = 1>, fillcolor="#399de5"] ;
691 -> 692 ;
693 [label=<gini = 0.0<br/>samples = 1<br/>value = [1, 0]<br/>class = 0>, fillcolor="#e58139"] ;
691 -> 693 ;
694 [label=<gini = 0.0<br/>samples = 2<br/>value = [2, 0]<br/>class = 0>, fillcolor="#e58139"] ;
662 -> 694 ;
695 [label=<gini = 0.0<br/>samples = 2<br/>value = [0, 2]<br/>class = 1>, fillcolor="#399de5"] ;
661 -> 695 ;
696 [label=<browser &le; 4.5<br/>gini = 0.32<br/>samples = 10<br/>value = [2, 8]<br/>class = 1>, fillcolor="#6ab6ec"] ;
660 -> 696 ;
697 [label=<hour &le; 21.5<br/>gini = 0.198<br/>samples = 9<br/>value = [1, 8]<br/>class = 1>, fillcolor="#52a9e8"] ;
696 -> 697 ;
698 [label=<device_make &le; 40.5<br/>gini = 0.32<br/>samples = 5<br/>value = [1, 4]<br/>class = 1>, fillcolor="#6ab6ec"] ;
697 -> 698 ;
699 [label=<experiment &le; 0.5<br/>gini = 0.444<br/>samples = 3<br/>value = [1, 2]<br/>class = 1>, fillcolor="#9ccef2"] ;
698 -> 699 ;
700 [label=<gini = 0.0<br/>samples = 1<br/>value = [0, 1]<br/>class = 1>, fillcolor="#399de5"] ;
699 -> 700 ;
701 [label=<gini = 0.5<br/>samples = 2<br/>value = [1, 1]<br/>class = 0>, fillcolor="#ffffff"] ;
699 -> 701 ;
702 [label=<gini = 0.0<br/>samples = 2<br/>value = [0, 2]<br/>class = 1>, fillcolor="#399de5"] ;
698 -> 702 ;
703 [label=<gini = 0.0<br/>samples = 4<br/>value = [0, 4]<br/>class = 1>, fillcolor="#399de5"] ;
697 -> 703 ;
704 [label=<gini = 0.0<br/>samples = 1<br/>value = [1, 0]<br/>class = 0>, fillcolor="#e58139"] ;
696 -> 704 ;
}